{"learner":{"attributes":{"scikit_learn":"{\"_estimator_type\": \"classifier\"}"},"feature_names":["Init_Win_bytes_forward","Bwd Packets/s","Init_Win_bytes_backward","Flow Duration","Packet Length Std","Destination Port","Average Packet Size","Total Length of Bwd Packets","Bwd Packet Length Min","Fwd Header Length","Total Backward Packets","Total Length of Fwd Packets","Bwd Packet Length Mean","Flow IAT Min"],"feature_types":["int","float","int","int","float","int","float","int","int","int","int","int","float","int"],"gradient_booster":{"model":{"gbtree_model_param":{"num_parallel_tree":"1","num_trees":"100"},"iteration_indptr":[0,1,2,3,4,5,6,7,8,9,10,11,12,13,14,15,16,17,18,19,20,21,22,23,24,25,26,27,28,29,30,31,32,33,34,35,36,37,38,39,40,41,42,43,44,45,46,47,48,49,50,51,52,53,54,55,56,57,58,59,60,61,62,63,64,65,66,67,68,69,70,71,72,73,74,75,76,77,78,79,80,81,82,83,84,85,86,87,88,89,90,91,92,93,94,95,96,97,98,99,100],"tree_info":[0,0,0,0,0,0,0,0,0,0,0,0,0,0,0,0,0,0,0,0,0,0,0,0,0,0,0,0,0,0,0,0,0,0,0,0,0,0,0,0,0,0,0,0,0,0,0,0,0,0,0,0,0,0,0,0,0,0,0,0,0,0,0,0,0,0,0,0,0,0,0,0,0,0,0,0,0,0,0,0,0,0,0,0,0,0,0,0,0,0,0,0,0,0,0,0,0,0,0,0],"trees":[{"base_weights":[-6.436262E-1,-8.570658E-1,5.2961817E0,1.9400978E-1,-1.1416905E0,6.611042E0,-1.1717879E0,-4.4454253E-1,2.7236001E0,1.941957E0,-1.1516447E0,-2.8240213E-1,1.9846004E0,2.9083985E-1,-1.1745081E0,-6.980624E-1,6.2041154E0,-5.8126134E-1,5.8139286E0,-7.786975E-1,4.554799E0,-1.1614866E0,2.601099E-3,-1.1765501E0,-6.3398485E-3,8.917559E-1,-1.1755047E0,6.515684E0,-3.477288E-1,-9.029685E-1,1.7011125E0,-1.1567656E0,6.350578E0,-1.080539E0,1.8083309E0,-3.4908515E-1,6.549469E0,-4.0540034E-1,-1.1650211E0,6.559395E0,-1.1340533E0,-3.0949114E-2,-3.5316968E-1,2.6515424E-1,-2.1424438E-1,1.7630373E0,-4.2690925E-2,-3.530918E-1,-2.9819822E-1,1.9823998E0,-3.339832E-1,7.8969315E-2,-3.263792E-1,1.9599034E0,-2.9766783E-1,8.573609E-1,-3.5248944E-1,1.935164E0,-3.4808064E-1,1.540347E0,-3.5217348E-1,1.9751453E0,-1.7900078E-1,-3.518248E-1,1.9623138E0,-3.5024652E-1,-3.0979773E-1,1.972825E0,4.132059E-1,-3.4673774E-1,3.9211255E-1],"categories":[],"categories_nodes":[],"categories_segments":[],"categories_sizes":[],"default_left":[0,0,0,0,0,0,0,0,0,0,0,0,0,0,0,0,0,0,0,0,0,0,0,0,0,0,0,0,0,0,0,0,0,0,0,0,0,0,0,0,0,0,0,0,0,0,0,0,0,0,0,0,0,0,0,0,0,0,0,0,0,0,0,0,0,0,0,0,0,0,0],"id":0,"left_children":[1,3,5,7,9,11,13,15,17,19,21,-1,-1,-1,23,25,27,29,31,33,35,37,39,41,43,45,47,49,-1,51,53,55,57,59,-1,-1,61,63,65,67,69,-1,-1,-1,-1,-1,-1,-1,-1,-1,-1,-1,-1,-1,-1,-1,-1,-1,-1,-1,-1,-1,-1,-1,-1,-1,-1,-1,-1,-1,-1],"loss_changes":[3.1753903E5,7.233041E4,7.389484E4,8.3221766E4,5.84225E3,2.403125E2,9.693115E0,6.9344445E4,1.0606041E5,4.358003E3,2.154375E3,0E0,0E0,0E0,3.4926758E0,3.0080129E4,3.4742422E3,3.6867183E3,2.0082328E4,6.2479065E2,3.5734326E3,5.0201562E2,1.1964485E4,9.5092773E-1,2.8779428E0,4.718132E4,6.9492188E0,1.0284844E3,0E0,9.4928125E2,8.08012E3,3.1447693E1,3.7489844E3,1.7374438E2,0E0,0E0,6.0856445E1,4.679458E3,5.990625E1,1.1453125E1,7.41167E1,0E0,0E0,0E0,0E0,0E0,0E0,0E0,0E0,0E0,0E0,0E0,0E0,0E0,0E0,0E0,0E0,0E0,0E0,0E0,0E0,0E0,0E0,0E0,0E0,0E0,0E0,0E0,0E0,0E0,0E0],"parents":[2147483647,0,0,1,1,2,2,3,3,4,4,5,5,6,6,7,7,8,8,9,9,10,10,14,14,15,15,16,16,17,17,18,18,19,19,20,20,21,21,22,22,23,23,24,24,25,25,26,26,27,27,29,29,30,30,31,31,32,32,33,33,36,36,37,37,38,38,39,39,40,40],"right_children":[2,4,6,8,10,12,14,16,18,20,22,-1,-1,-1,24,26,28,30,32,34,36,38,40,42,44,46,48,50,-1,52,54,56,58,60,-1,-1,62,64,66,68,70,-1,-1,-1,-1,-1,-1,-1,-1,-1,-1,-1,-1,-1,-1,-1,-1,-1,-1,-1,-1,-1,-1,-1,-1,-1,-1,-1,-1,-1,-1],"split_conditions":[1.6564286E3,7.75E0,1.2126E4,2.309401E0,2.2E1,1.0446E4,8.921077E2,2.4E1,7.142857E3,2E0,1.4310427E3,-2.8240213E-1,1.9846004E0,2.9083985E-1,2.2398655E3,8.8E1,8.8E1,6.681031E1,1.024E3,4.057417E6,8.082904E0,5.3E1,1.4893685E-1,2.172581E-1,1.8567114E1,1.5E1,1.04E2,5.416E3,-3.477288E-1,5.8478124E-2,4.43E2,8.8E1,2E0,2.35E2,1.8083309E0,-3.4908515E-1,1.3E1,2.47E2,9.843591E2,1.21088736E-1,1.3003516E3,-3.0949114E-2,-3.5316968E-1,2.6515424E-1,-2.1424438E-1,1.7630373E0,-4.2690925E-2,-3.530918E-1,-2.9819822E-1,1.9823998E0,-3.339832E-1,7.8969315E-2,-3.263792E-1,1.9599034E0,-2.9766783E-1,8.573609E-1,-3.5248944E-1,1.935164E0,-3.4808064E-1,1.540347E0,-3.5217348E-1,1.9751453E0,-1.7900078E-1,-3.518248E-1,1.9623138E0,-3.5024652E-1,-3.0979773E-1,1.972825E0,4.132059E-1,-3.4673774E-1,3.9211255E-1],"split_indices":[12,6,7,4,5,7,4,11,1,13,12,0,0,0,4,5,5,1,0,3,4,5,1,1,1,3,9,13,0,1,5,5,10,0,0,0,12,2,4,1,4,0,0,0,0,0,0,0,0,0,0,0,0,0,0,0,0,0,0,0,0,0,0,0,0,0,0,0,0,0,0],"split_type":[0,0,0,0,0,0,0,0,0,0,0,0,0,0,0,0,0,0,0,0,0,0,0,0,0,0,0,0,0,0,0,0,0,0,0,0,0,0,0,0,0,0,0,0,0,0,0,0,0,0,0,0,0,0,0,0,0,0,0,0,0,0,0,0,0,0,0,0,0,0,0],"sum_hessian":[2.5046202E5,2.4177498E5,8.687025E3,5.151996E4,1.9025503E5,7.2193887E3,1.4676371E3,4.113656E4,1.0383404E4,6.115582E2,1.8964347E5,3.9769886E0,7.2154116E3,1.4111894E0,1.4662258E3,3.9626457E4,1.5101011E3,5.017933E3,5.3654707E3,2.9994193E2,3.116163E2,1.880401E5,1.6033678E3,1.46366E3,2.565799E0,9.151692E3,3.0474766E4,1.4489067E3,6.119431E1,4.3985493E3,6.193839E2,3.8345868E2,4.982012E3,2.8801096E2,1.1930965E1,8.069438E1,2.3092192E2,8.754506E2,1.8716466E5,2.3618181E2,1.367186E3,1.0263196E0,1.4626338E3,1.0263196E0,1.5394795E0,1.5714236E3,7.5802686E3,3.0224855E4,2.4990883E2,1.4317158E3,1.7190853E1,6.0206476E2,3.7964846E3,2.2117188E2,3.98212E2,1.0263196E0,3.8243234E2,4.9167124E3,6.529958E1,3.4638288E0,2.8454712E2,2.298956E2,1.0263196E0,7.891115E2,8.633914E1,1.83732E5,3.4326543E3,2.3515549E2,1.0263196E0,1.3556399E3,1.1546096E1],"tree_param":{"num_deleted":"0","num_feature":"14","num_nodes":"71","size_leaf_vector":"1"}},{"base_weights":[-6.614102E-1,-8.2829034E-1,1.5523393E0,-7.7510625E-2,-1.0871515E0,1.7708516E0,-1.1173577E0,4.8680636E-1,-9.640564E-1,6.946904E-1,-1.0962998E0,-2.5991568E-1,1.7715311E0,3.8138667E-1,-1.1207764E0,-2.1239527E-2,1.4458448E0,-1.0538733E0,-2.206674E-2,1.3269987E0,-3.3623037E-1,-1.1054159E0,-2.2267799E-1,1.793657E-1,1.7716757E0,-1.123286E0,-4.167304E-3,1.4478916E0,-3.3751345E-1,1.6389669E0,-8.618289E-1,1.9318004E-1,-1.09167E0,1.8467664E0,-1.1049426E0,-3.3383083E-1,5.346095E-1,-4.9617726E-1,-1.1086757E0,1.758269E0,-1.081959E0,2.7683944E-1,5.315461E-1,-2.6586317E-2,-3.3723858E-1,-2.078869E-1,2.4085481E-1,-3.848552E-1,5.731758E-1,5.1255107E-1,-3.3628124E-1,-2.6960897E-1,1.4627249E0,-3.5021135E-1,1.9534976E0,-3.3600083E-1,-2.5948372E-1,7.644153E-1,-3.3884612E-1,-9.4190605E-2,-3.358443E-1,-3.3553874E-1,5.335878E-1,-3.335293E-1,-2.844307E-1,5.3720695E-1,-3.0915505E-1,-4.715412E-2,-3.3740053E-1],"categories":[],"categories_nodes":[],"categories_segments":[],"categories_sizes":[],"default_left":[0,0,0,0,0,0,0,0,0,0,0,0,0,0,0,0,0,0,0,0,0,0,0,0,0,0,0,0,0,0,0,0,0,0,0,0,0,0,0,0,0,0,0,0,0,0,0,0,0,0,0,0,0,0,0,0,0,0,0,0,0,0,0,0,0,0,0,0,0],"id":1,"left_children":[1,3,5,7,9,11,13,15,17,19,21,-1,23,-1,25,27,29,31,33,35,-1,37,39,-1,41,43,45,47,-1,49,51,53,55,57,59,-1,-1,61,63,65,67,-1,-1,-1,-1,-1,-1,-1,-1,-1,-1,-1,-1,-1,-1,-1,-1,-1,-1,-1,-1,-1,-1,-1,-1,-1,-1,-1,-1],"loss_changes":[7.886049E4,3.8577656E4,8.731289E3,2.5462371E4,2.4068594E3,2.6320312E1,1.0674438E1,1.5152718E4,1.6748262E3,8.6768604E2,1.1693125E3,0E0,1.2929688E0,0E0,3.166626E0,3.297062E4,4.8010176E3,8.520449E2,3.4913328E3,6.2380383E2,0E0,2.8809375E2,2.5855178E3,0E0,5.859375E-2,8.8464355E-1,2.5248957E0,1.1023238E4,0E0,1.9092109E3,1.8044531E2,4.5852236E3,1.1171094E2,1.3239138E3,1.22092285E1,0E0,0E0,1.0994865E3,7.0640625E1,4.3398315E1,4.1659668E1,0E0,0E0,0E0,0E0,0E0,0E0,0E0,0E0,0E0,0E0,0E0,0E0,0E0,0E0,0E0,0E0,0E0,0E0,0E0,0E0,0E0,0E0,0E0,0E0,0E0,0E0,0E0,0E0],"parents":[2147483647,0,0,1,1,2,2,3,3,4,4,5,5,6,6,7,7,8,8,9,9,10,10,12,12,14,14,15,15,16,16,17,17,18,18,19,19,21,21,22,22,24,24,25,25,26,26,27,27,29,29,30,30,31,31,32,32,33,33,34,34,37,37,38,38,39,39,40,40],"right_children":[2,4,6,8,10,12,14,16,18,20,22,-1,24,-1,26,28,30,32,34,36,-1,38,40,-1,42,44,46,48,-1,50,52,54,56,58,60,-1,-1,62,64,66,68,-1,-1,-1,-1,-1,-1,-1,-1,-1,-1,-1,-1,-1,-1,-1,-1,-1,-1,-1,-1,-1,-1,-1,-1,-1,-1,-1,-1],"split_conditions":[1.6564286E3,7.75E0,1.2126E4,8E0,2.2E1,1.0446E4,8.5306836E2,2.309401E0,3.8181818E0,1.3E1,1.4310427E3,-2.5991568E-1,1.1595E4,3.8138667E-1,2.2398655E3,8.8E1,3.273E3,5.3E1,8.8E1,8.082904E0,-3.3623037E-1,5.3E1,2.380268E-1,1.793657E-1,2.29E2,2.172581E-1,1.637E3,6.4E1,-3.3751345E-1,1.2E1,6.602198E7,2.47E2,1.04E2,1.964E3,3.89E2,-3.3383083E-1,5.346095E-1,2.47E2,9.843591E2,1E1,1.2126E4,2.7683944E-1,5.315461E-1,-2.6586317E-2,-3.3723858E-1,-2.078869E-1,2.4085481E-1,-3.848552E-1,5.731758E-1,5.1255107E-1,-3.3628124E-1,-2.6960897E-1,1.4627249E0,-3.5021135E-1,1.9534976E0,-3.3600083E-1,-2.5948372E-1,7.644153E-1,-3.3884612E-1,-9.4190605E-2,-3.358443E-1,-3.3553874E-1,5.335878E-1,-3.335293E-1,-2.844307E-1,5.3720695E-1,-3.0915505E-1,-4.715412E-2,-3.3740053E-1],"split_indices":[12,6,7,2,5,7,4,4,6,12,12,0,7,0,4,5,3,5,5,4,0,5,1,0,2,1,11,9,0,7,3,2,9,13,5,0,0,2,4,10,7,0,0,0,0,0,0,0,0,0,0,0,0,0,0,0,0,0,0,0,0,0,0,0,0,0,0,0,0],"split_type":[0,0,0,0,0,0,0,0,0,0,0,0,0,0,0,0,0,0,0,0,0,0,0,0,0,0,0,0,0,0,0,0,0,0,0,0,0,0,0,0,0,0,0,0,0,0,0,0,0,0,0,0,0,0,0,0,0,0,0,0,0,0,0,0,0,0,0,0,0],"sum_hessian":[2.1346039E5,1.984976E5,1.4962808E4,5.0893E4,1.476046E5,1.3831083E4,1.1317249E3,3.1098307E4,1.9794695E4,7.53575E2,1.4685102E5,3.2346015E0,1.3827849E4,1.087386E0,1.1306375E3,2.0329717E4,1.076859E4,1.8071492E4,1.7232024E3,5.5911066E2,1.9446434E2,1.4533419E5,1.5168184E3,2.2127311E0,1.3825636E4,1.1280961E3,2.5414333E0,8.7214375E3,1.1608279E4,9.937261E3,8.3132916E2,5.3149133E2,1.7540002E4,6.319222E2,1.0912803E3,8.7659225E1,4.7145145E2,7.743006E2,1.4455989E5,4.5858093E2,1.0582375E3,3.4420261E0,1.3822193E4,1.0042719E0,1.1270918E3,1.4474068E0,1.0940264E0,1.2633848E3,7.4580527E3,9.693413E3,2.4384723E2,8.2685944E2,4.469741E0,4.379938E2,9.34975E1,1.5588084E4,1.9519174E3,5.115348E2,1.2038737E2,2.0104004E1,1.0711763E3,6.083825E2,1.6591812E2,1.41826E5,2.7338901E3,4.5366476E2,4.9161563E0,4.6921997E1,1.0113155E3],"tree_param":{"num_deleted":"0","num_feature":"14","num_nodes":"69","size_leaf_vector":"1"}},{"base_weights":[-6.2727594E-1,-7.8628373E-1,1.2837719E0,-9.568222E-2,-1.0464216E0,1.4526919E0,-1.0807482E0,3.7445927E-1,-9.180396E-1,5.841385E-1,-1.0555608E0,-2.9910132E-1,1.4532576E0,3.4164992E-1,-1.0850294E0,-5.3265277E-2,1.1536434E0,-1.0051466E0,-4.7855712E-2,1.0992155E0,-3.2500604E-1,-1.0647293E0,-2.183734E-1,4.360828E-1,-2.7887356E-1,-3.264538E-1,-5.7625454E-3,1.005643E0,-3.2675123E-1,-5.275068E-1,1.339129E0,-1.1668603E-1,-1.03965E0,1.4381833E0,-1.0587058E0,-3.221444E-1,1.452235E0,-4.7419676E-1,-1.0679817E0,1.4372417E0,-1.0340656E0,-2.0370914E-1,2.3159914E-1,-3.6299545E-1,3.870251E-1,9.4730556E-1,-2.7478078E-1,4.1766068E-1,-3.2513857E-1,-3.308875E-1,5.061031E-1,-3.2301322E-1,-2.291535E-1,5.786201E-1,-3.2345667E-1,-1.7831625E-1,-3.2818535E-1,4.3835658E-1,-2.5807834E-1,-3.2422173E-1,4.358904E-1,-3.246646E-1,-3.0325046E-1,4.386477E-1,-3.386128E-1,-3.474575E-2,-3.2633823E-1],"categories":[],"categories_nodes":[],"categories_segments":[],"categories_sizes":[],"default_left":[0,0,0,0,0,0,0,0,0,0,0,0,0,0,0,0,0,0,0,0,0,0,0,0,0,0,0,0,0,0,0,0,0,0,0,0,0,0,0,0,0,0,0,0,0,0,0,0,0,0,0,0,0,0,0,0,0,0,0,0,0,0,0,0,0,0,0],"id":2,"left_children":[1,3,5,7,9,11,13,15,17,19,21,-1,23,-1,25,27,29,31,33,35,-1,37,39,-1,-1,-1,41,43,-1,45,47,49,51,53,55,-1,57,59,61,63,65,-1,-1,-1,-1,-1,-1,-1,-1,-1,-1,-1,-1,-1,-1,-1,-1,-1,-1,-1,-1,-1,-1,-1,-1,-1,-1],"loss_changes":[5.119729E4,2.7942773E4,5.170752E3,1.6454758E4,1.6842578E3,1.81875E1,9.440918E0,9.024898E3,1.1734014E3,5.42603E2,8.6215625E2,0E0,1.1474609E1,0E0,2.925415E0,1.917908E4,2.9932705E3,4.3126172E2,2.1191497E3,3.7138727E2,0E0,2.129375E2,1.6468389E3,0E0,0E0,0E0,2.3647428E0,5.4505195E3,0E0,1.3689711E3,1.1129941E3,9.397052E2,1.3764062E2,7.0709875E2,1.3089539E1,0E0,9.852661E0,7.151993E2,8.8796875E1,2.7388062E1,4.017157E1,0E0,0E0,0E0,0E0,0E0,0E0,0E0,0E0,0E0,0E0,0E0,0E0,0E0,0E0,0E0,0E0,0E0,0E0,0E0,0E0,0E0,0E0,0E0,0E0,0E0,0E0],"parents":[2147483647,0,0,1,1,2,2,3,3,4,4,5,5,6,6,7,7,8,8,9,9,10,10,12,12,14,14,15,15,16,16,17,17,18,18,19,19,21,21,22,22,26,26,27,27,29,29,30,30,31,31,32,32,33,33,34,34,36,36,37,37,38,38,39,39,40,40],"right_children":[2,4,6,8,10,12,14,16,18,20,22,-1,24,-1,26,28,30,32,34,36,-1,38,40,-1,-1,-1,42,44,-1,46,48,50,52,54,56,-1,58,60,62,64,66,-1,-1,-1,-1,-1,-1,-1,-1,-1,-1,-1,-1,-1,-1,-1,-1,-1,-1,-1,-1,-1,-1,-1,-1,-1,-1],"split_conditions":[1.6564286E3,7.75E0,8E0,8E0,2.2E1,1.32E2,7.803128E2,2.309401E0,3.8181818E0,1.3E1,1.4310427E3,-2.9910132E-1,2.4E2,3.4164992E-1,2.2398655E3,8.8E1,2.3529412E3,5.3E1,8.8E1,8.082904E0,-3.2500604E-1,5.3E1,2.380268E-1,4.360828E-1,-2.7887356E-1,-3.264538E-1,3.4E3,6.4E1,-3.2675123E-1,1.23E2,1.2E1,2.47E2,1.04E2,4.6E2,4.5E0,-3.221444E-1,2.29E2,2.47E2,2.29E2,8.8E1,1.2126E4,-2.0370914E-1,2.3159914E-1,-3.6299545E-1,3.870251E-1,9.4730556E-1,-2.7478078E-1,4.1766068E-1,-3.2513857E-1,-3.308875E-1,5.061031E-1,-3.2301322E-1,-2.291535E-1,5.786201E-1,-3.2345667E-1,-1.7831625E-1,-3.2818535E-1,4.3835658E-1,-2.5807834E-1,-3.2422173E-1,4.358904E-1,-3.246646E-1,-3.0325046E-1,4.386477E-1,-3.386128E-1,-3.474575E-2,-3.2633823E-1],"split_indices":[12,6,10,2,5,2,4,4,6,12,12,0,2,0,4,5,1,5,5,4,0,5,1,0,0,0,9,9,0,5,7,2,9,13,6,0,2,2,2,5,7,0,0,0,0,0,0,0,0,0,0,0,0,0,0,0,0,0,0,0,0,0,0,0,0,0,0],"split_type":[0,0,0,0,0,0,0,0,0,0,0,0,0,0,0,0,0,0,0,0,0,0,0,0,0,0,0,0,0,0,0,0,0,0,0,0,0,0,0,0,0,0,0,0,0,0,0,0,0,0,0,0,0,0,0,0,0,0,0,0,0,0,0,0,0,0,0],"sum_hessian":[1.6847906E5,1.5553817E5,1.2940888E4,4.255818E4,1.1297999E5,1.2078399E4,8.6248883E2,2.7078152E4,1.5480028E4,6.29365E2,1.1235063E5,2.3817577E0,1.2076018E4,1.1502014E0,8.613386E2,1.7482344E4,9.595809E3,1.4071309E4,1.4087189E3,4.810979E2,1.482671E2,1.1113327E5,1.2173535E3,1.2074625E4,1.3922328E0,8.588237E2,2.5148787E0,8.6452E3,8.837144E3,9.5334186E2,8.642467E3,5.2619415E2,1.3545115E4,5.7013995E2,8.385789E2,6.694885E1,4.1414905E2,6.0950964E2,1.10523766E5,4.0155435E2,8.1579913E2,1.4160314E0,1.0988474E0,9.832209E2,7.6619795E3,9.022352E1,8.631183E2,8.457631E3,1.8483604E2,3.4043222E2,1.8576192E2,1.1938061E4,1.6070543E3,4.7732257E2,9.2817375E1,6.0423916E1,7.7815497E2,4.1291843E2,1.2306074E0,4.6393365E2,1.45576E2,8.8470445E4,2.2053324E4,3.9811853E2,3.4358354E0,4.5269836E1,7.705293E2],"tree_param":{"num_deleted":"0","num_feature":"14","num_nodes":"67","size_leaf_vector":"1"}},{"base_weights":[-5.98948E-1,-7.509291E-1,1.1466576E0,-1.0131523E-1,-1.0148826E0,1.2923211E0,-1.0536817E0,3.0307052E-1,-8.754275E-1,5.252666E-1,-1.023946E0,-2.7351895E-1,1.2928567E0,2.6128656E-1,-1.0589253E0,-1.1737888E0,5.1118404E-1,-9.6013814E-1,-5.9421215E-2,9.818252E-1,-3.1688607E-1,-1.0375421E0,-3.9128855E-1,3.8796163E-1,-2.5113457E-1,-3.188711E-1,-7.1240216E-3,-1.0634105E0,-1.3923763E0,6.5806717E-1,-9.684341E-1,-1.2115786E-1,-9.9468035E-1,1.2094873E0,-1.021386E0,-3.1336263E-1,1.2873493E0,-4.579045E-1,-1.0408173E0,1.6131197E0,-1.0656952E0,-2.044578E-1,2.3669435E-1,-3.2571796E-1,-2.8171954E-1,-4.3226504E-1,-3.3146465E-1,2.3269548E-1,-3.979966E-1,1.9562478E0,-2.997686E-1,-3.1540036E-1,4.0281874E-1,4.325508E-1,-3.003747E-1,4.7798973E-1,-3.172453E-1,7.746754E-3,-3.1363732E-1,3.888729E-1,-2.3316567E-1,-3.1596097E-1,3.8657576E-1,-2.9322106E-1,-3.176563E-1,4.057839E0,2.7581534E-1,-3.2150128E-1,-2.7910104E-1],"categories":[],"categories_nodes":[],"categories_segments":[],"categories_sizes":[],"default_left":[0,0,0,0,0,0,0,0,0,0,0,0,0,0,0,0,0,0,0,0,0,0,0,0,0,0,0,0,0,0,0,0,0,0,0,0,0,0,0,0,0,0,0,0,0,0,0,0,0,0,0,0,0,0,0,0,0,0,0,0,0,0,0,0,0,0,0,0,0],"id":3,"left_children":[1,3,5,7,9,11,13,15,17,19,21,-1,23,-1,25,27,29,31,33,35,-1,37,39,-1,-1,-1,41,43,45,47,49,51,53,55,57,-1,59,61,63,65,67,-1,-1,-1,-1,-1,-1,-1,-1,-1,-1,-1,-1,-1,-1,-1,-1,-1,-1,-1,-1,-1,-1,-1,-1,-1,-1,-1,-1],"loss_changes":[3.4846973E4,2.0717906E4,3.3731748E3,1.0928894E4,1.1998594E3,1.2828125E1,7.5197144E0,7.0490645E3,8.280244E2,3.6445966E2,7.343047E2,0E0,8.408203E0,0E0,2.7224731E0,6.6866455E1,4.3691914E3,3.1439844E2,1.3777858E3,2.4346265E2,0E0,1.5826562E2,2.4330254E3,0E0,0E0,0E0,2.3981552E0,4.215088E0,1.1617798E1,4.268546E3,4.2525513E2,5.873398E2,1.6826953E2,4.2519122E2,1.6210144E1,0E0,7.255615E0,4.9167795E2,9.40625E1,3.7330442E3,9.2041016E-2,0E0,0E0,0E0,0E0,0E0,0E0,0E0,0E0,0E0,0E0,0E0,0E0,0E0,0E0,0E0,0E0,0E0,0E0,0E0,0E0,0E0,0E0,0E0,0E0,0E0,0E0,0E0,0E0],"parents":[2147483647,0,0,1,1,2,2,3,3,4,4,5,5,6,6,7,7,8,8,9,9,10,10,12,12,14,14,15,15,16,16,17,17,18,18,19,19,21,21,22,22,26,26,27,27,28,28,29,29,30,30,31,31,32,32,33,33,34,34,36,36,37,37,38,38,39,39,40,40],"right_children":[2,4,6,8,10,12,14,16,18,20,22,-1,24,-1,26,28,30,32,34,36,-1,38,40,-1,-1,-1,42,44,46,48,50,52,54,56,58,-1,60,62,64,66,68,-1,-1,-1,-1,-1,-1,-1,-1,-1,-1,-1,-1,-1,-1,-1,-1,-1,-1,-1,-1,-1,-1,-1,-1,-1,-1,-1,-1],"split_conditions":[1.6564286E3,7.75E0,8E0,8E0,2.2E1,1.32E2,7.803128E2,2.51E2,3.8181818E0,1.3E1,1.0786287E3,-2.7351895E-1,2.4E2,2.6128656E-1,2.2398655E3,2.37E2,2E0,5.3E1,8.8E1,8.082904E0,-3.1688607E-1,5.3E1,8.8E1,3.8796163E-1,-2.5113457E-1,-3.188711E-1,1.71E2,6.32E2,8.8E1,3.0016E4,1.1033253E-1,2.47E2,7.002534E-2,1.964E3,3.89E2,-3.1336263E-1,2.29E2,2.47E2,4.6E1,5E0,1.106E3,-2.044578E-1,2.3669435E-1,-3.2571796E-1,-2.8171954E-1,-4.3226504E-1,-3.3146465E-1,2.3269548E-1,-3.979966E-1,1.9562478E0,-2.997686E-1,-3.1540036E-1,4.0281874E-1,4.325508E-1,-3.003747E-1,4.7798973E-1,-3.172453E-1,7.746754E-3,-3.1363732E-1,3.888729E-1,-2.3316567E-1,-3.1596097E-1,3.8657576E-1,-2.9322106E-1,-3.176563E-1,4.057839E0,2.7581534E-1,-3.2150128E-1,-2.7910104E-1],"split_indices":[12,6,10,2,5,2,4,0,6,12,4,0,2,0,4,0,10,5,5,4,0,5,5,0,0,0,10,13,5,0,1,2,1,13,5,0,2,2,12,10,2,0,0,0,0,0,0,0,0,0,0,0,0,0,0,0,0,0,0,0,0,0,0,0,0,0,0,0,0],"split_type":[0,0,0,0,0,0,0,0,0,0,0,0,0,0,0,0,0,0,0,0,0,0,0,0,0,0,0,0,0,0,0,0,0,0,0,0,0,0,0,0,0,0,0,0,0,0,0,0,0,0,0,0,0,0,0,0,0,0,0,0,0,0,0,0,0,0,0,0,0],"sum_hessian":[1.3134553E5,1.2082635E5,1.0519175E4,3.491029E4,8.591606E4,9.866425E3,6.527492E2,2.2931693E4,1.1978597E4,5.0230533E2,8.541376E4,1.983761E0,9.864441E3,1.3249274E0,6.514243E2,2.831755E3,2.0099938E4,1.0851873E4,1.1267234E3,3.9007788E2,1.1222744E2,8.361617E4,1.7975879E3,9.86322E3,1.2215722E0,6.489591E2,2.4651923E0,1.8855101E3,9.4624475E2,1.8285295E4,1.8146433E3,4.293E2,1.0422573E4,4.8573834E2,6.40985E2,5.0791046E1,3.3928683E2,4.7060587E2,8.314556E4,4.522024E2,1.3453855E3,1.4125273E0,1.052665E0,1.5920559E3,2.9345428E2,8.062069E2,1.4003786E2,1.7263152E4,1.02214215E3,6.5679293E0,1.8080754E3,2.626744E2,1.666256E2,2.7435417E1,1.0395138E4,4.1566153E2,7.00768E1,1.4401288E1,6.2658374E2,3.3820212E2,1.0847279E0,3.5127072E2,1.1933517E2,1.842454E4,6.4721027E4,2.38663E1,4.283361E2,1.281877E3,6.3508537E1],"tree_param":{"num_deleted":"0","num_feature":"14","num_nodes":"69","size_leaf_vector":"1"}},{"base_weights":[-5.6527495E-1,-7.063072E-1,1.0653104E0,-1.00081876E-1,-9.9125475E-1,1.1978844E0,-1.0333457E0,2.1880332E-1,-8.354091E-1,4.8874027E-1,-1.0002103E0,-2.4934404E-1,1.198427E0,2.0582542E-1,-1.0397357E0,-1.3337871E-1,9.3498826E-1,-5.114601E-1,-1.0417522E0,9.107596E-1,-3.107233E-1,-1.0101696E0,-1.790341E-1,1.1987951E0,-2.2645433E-1,-3.1343472E-1,-6.265954E-3,6.7574114E-1,-3.205592E-1,-4.1112542E-1,1.0869162E0,-7.123859E-1,1.0040797E0,-1.0457047E0,-8.756263E-1,-3.06297E-1,3.568984E-1,-1.0301844E0,-8.9344084E-1,1.0808414E0,-1.0460871E0,1.0926661E-1,3.596781E-1,-2.0182265E-1,2.3758121E-1,-3.6110747E-1,2.7075958E-1,2.8579903E-1,-2.9953742E-1,3.3711576E-1,-3.114666E-1,-2.6453364E-1,9.310611E-2,4.467549E-1,-1.08833864E-1,-3.144897E-1,-2.8776497E-1,8.405084E-1,-3.148898E-1,1.6637E-1,-3.0949035E-1,-1.20448075E-1,-3.1402558E-1,-3.4573612E-1,3.9553544E-1,-3.1445172E-1,-2.6225816E-2],"categories":[],"categories_nodes":[],"categories_segments":[],"categories_sizes":[],"default_left":[0,0,0,0,0,0,0,0,0,0,0,0,0,0,0,0,0,0,0,0,0,0,0,0,0,0,0,0,0,0,0,0,0,0,0,0,0,0,0,0,0,0,0,0,0,0,0,0,0,0,0,0,0,0,0,0,0,0,0,0,0,0,0,0,0,0,0],"id":4,"left_children":[1,3,5,7,9,11,13,15,17,19,21,-1,23,-1,25,27,29,31,33,35,-1,37,39,41,-1,-1,43,45,-1,47,49,51,53,55,57,-1,-1,59,61,63,65,-1,-1,-1,-1,-1,-1,-1,-1,-1,-1,-1,-1,-1,-1,-1,-1,-1,-1,-1,-1,-1,-1,-1,-1,-1,-1],"loss_changes":[2.3923129E4,1.653923E4,2.3053945E3,7.178996E3,8.637383E2,9.571289E0,6.1256104E0,5.3865254E3,6.1850977E2,2.5340656E2,5.292969E2,0E0,6.5039062E0,0E0,2.5552979E0,1.0833319E4,1.4401733E3,1.0986284E3,2.7983398E0,1.6708307E2,0E0,1.4851953E2,8.4989667E2,4.2089844E-1,0E0,0E0,2.3377788E0,3.2729287E3,0E0,5.734135E2,4.9594336E2,5.5189026E2,2.8066425E2,2.3242188E-1,9.098923E1,0E0,0E0,1.2601953E2,7.0625586E2,1.698613E2,8.2943726E-1,0E0,0E0,0E0,0E0,0E0,0E0,0E0,0E0,0E0,0E0,0E0,0E0,0E0,0E0,0E0,0E0,0E0,0E0,0E0,0E0,0E0,0E0,0E0,0E0,0E0,0E0],"parents":[2147483647,0,0,1,1,2,2,3,3,4,4,5,5,6,6,7,7,8,8,9,9,10,10,12,12,14,14,15,15,16,16,17,17,18,18,19,19,21,21,22,22,23,23,26,26,27,27,29,29,30,30,31,31,32,32,33,33,34,34,37,37,38,38,39,39,40,40],"right_children":[2,4,6,8,10,12,14,16,18,20,22,-1,24,-1,26,28,30,32,34,36,-1,38,40,42,-1,-1,44,46,-1,48,50,52,54,56,58,-1,-1,60,62,64,66,-1,-1,-1,-1,-1,-1,-1,-1,-1,-1,-1,-1,-1,-1,-1,-1,-1,-1,-1,-1,-1,-1,-1,-1,-1,-1],"split_conditions":[1.6564286E3,7.75E0,8E0,8E0,2.2E1,1.32E2,7.803128E2,2.309401E0,3.89E2,1.3E1,1.4310427E3,-2.4934404E-1,2.4E2,2.0582542E-1,2.2398655E3,8.8E1,1.1520737E3,3.8181818E0,1.04E2,8.082904E0,-3.107233E-1,2.92E4,9E0,1.1595E4,-2.2645433E-1,-3.1343472E-1,8.072E3,2.51E2,-3.205592E-1,3.2863352E0,1.2E1,1.719294E2,2.35E2,2E0,1.689E3,-3.06297E-1,3.568984E-1,2E0,8.8E1,1.1595E4,3.8E1,1.0926661E-1,3.596781E-1,-2.0182265E-1,2.3758121E-1,-3.6110747E-1,2.7075958E-1,2.8579903E-1,-2.9953742E-1,3.3711576E-1,-3.114666E-1,-2.6453364E-1,9.310611E-2,4.467549E-1,-1.08833864E-1,-3.144897E-1,-2.8776497E-1,8.405084E-1,-3.148898E-1,1.6637E-1,-3.0949035E-1,-1.20448075E-1,-3.1402558E-1,-3.4573612E-1,3.9553544E-1,-3.1445172E-1,-2.6225816E-2],"split_indices":[12,6,10,2,5,2,4,4,5,12,12,0,2,0,4,5,1,6,9,4,0,0,10,7,0,0,9,0,0,4,7,1,0,8,3,0,0,11,5,7,13,0,0,0,0,0,0,0,0,0,0,0,0,0,0,0,0,0,0,0,0,0,0,0,0,0,0],"split_type":[0,0,0,0,0,0,0,0,0,0,0,0,0,0,0,0,0,0,0,0,0,0,0,0,0,0,0,0,0,0,0,0,0,0,0,0,0,0,0,0,0,0,0,0,0,0,0,0,0,0,0,0,0,0,0,0,0,0,0,0,0,0,0,0,0,0,0],"sum_hessian":[1.0402515E5,9.57446E4,8.280553E3,3.061424E4,6.513036E4,7.788947E3,4.9160635E2,2.135433E4,9.259909E3,3.9141238E2,6.473895E4,1.6726751E0,7.7872744E3,1.4263643E0,4.9018E2,1.4315523E4,7.0388066E3,3.6044966E3,5.655412E3,3.06866E2,8.4546394E1,6.3962957E4,7.7598865E2,7.7861934E3,1.0809658E0,4.87787E2,2.3929796E0,7.6750938E3,6.64043E3,7.1368665E2,6.32512E3,3.18303E3,4.214666E2,5.51881E3,1.366023E2,3.8379345E1,2.6848663E2,5.45942E4,9.368761E3,3.1623514E2,4.597535E2,1.6669103E0,7.7845264E3,1.3897549E0,1.0032247E0,8.259634E2,6.8491304E3,2.1464893E2,4.9903772E2,6.2179097E3,1.0721028E2,2.730864E3,4.5216583E2,3.1100156E2,1.1046507E2,5.3472944E3,1.7151573E2,5.489525E0,1.3111278E2,4.9556015E1,5.454464E4,2.2268428E3,7.141918E3,3.0039917E1,2.8619522E2,4.586625E2,1.0909984E0],"tree_param":{"num_deleted":"0","num_feature":"14","num_nodes":"67","size_leaf_vector":"1"}},{"base_weights":[-5.403482E-1,-6.735942E-1,1.0131079E0,-1.0060696E-1,-9.664669E-1,1.1376168E0,-1.017317E0,1.4212342E-1,-9.1525954E-1,8.029377E-2,-9.796749E-1,-2.089466E-1,1.1382447E0,1.2920214E-1,-1.0260812E0,3.0145016E-1,-7.0654863E-1,-3.1211355E-1,-7.625058E-2,1.1051521E0,-6.4262265E-1,-9.8952115E-1,-1.7754443E-1,6.58373E-2,1.138455E0,-3.0974182E-1,-3.2967336E-3,7.6286316E-1,-4.975243E-3,-1.1373537E0,6.4424294E-1,-3.2347253E-1,6.7861843E-1,-2.7377686E-1,3.5089335E-1,3.4941536E-1,-1.0313363E0,-1.0311055E0,-9.13177E-1,1.0331155E0,-1.0233759E0,7.680575E-2,3.416197E-1,1.8492183E-1,-1.938084E-1,-1.9439209E-1,3.5393053E-1,2.5205466E-1,-2.8016177E-1,-3.4926867E-1,1.1471062E-1,3.9549354E-1,-3.9999932E-1,2.864126E-1,-4.1561523E-1,-3.1008935E-1,-9.020152E-2,-3.1003088E-1,-1.769284E-1,1.8553001E0,-2.8803924E-1,-3.3991447E-1,3.777602E-1,2.1938743E-1,-3.096551E-1],"categories":[],"categories_nodes":[],"categories_segments":[],"categories_sizes":[],"default_left":[0,0,0,0,0,0,0,0,0,0,0,0,0,0,0,0,0,0,0,0,0,0,0,0,0,0,0,0,0,0,0,0,0,0,0,0,0,0,0,0,0,0,0,0,0,0,0,0,0,0,0,0,0,0,0,0,0,0,0,0,0,0,0,0,0],"id":5,"left_children":[1,3,5,7,9,11,13,15,17,19,21,-1,23,-1,25,27,29,-1,31,33,35,37,39,-1,41,-1,43,45,47,49,51,-1,53,-1,-1,-1,55,57,59,61,63,-1,-1,-1,-1,-1,-1,-1,-1,-1,-1,-1,-1,-1,-1,-1,-1,-1,-1,-1,-1,-1,-1,-1,-1],"loss_changes":[1.6757826E4,1.2512137E4,1.6180347E3,4.9873447E3,6.822461E2,7.7353516E0,5.1381226E0,2.6277544E3,6.0770996E2,4.5690985E2,3.8466406E2,0E0,9.135742E-1,0E0,2.4031677E0,2.313315E3,1.7882941E3,0E0,5.698604E2,3.4257294E1,2.5530502E2,1.518711E2,6.07364E2,0E0,1.1816406E0,0E0,1.7084057E0,3.8412756E3,7.7202744E3,9.558325E1,9.927569E2,0E0,2.4621971E2,0E0,0E0,0E0,1.8920898E-1,3.14375E1,5.665372E3,1.20933624E2,6.149475E0,0E0,0E0,0E0,0E0,0E0,0E0,0E0,0E0,0E0,0E0,0E0,0E0,0E0,0E0,0E0,0E0,0E0,0E0,0E0,0E0,0E0,0E0,0E0,0E0],"parents":[2147483647,0,0,1,1,2,2,3,3,4,4,5,5,6,6,7,7,8,8,9,9,10,10,12,12,14,14,15,15,16,16,18,18,19,19,20,20,21,21,22,22,24,24,26,26,27,27,28,28,29,29,30,30,32,32,36,36,37,37,38,38,39,39,40,40],"right_children":[2,4,6,8,10,12,14,16,18,20,22,-1,24,-1,26,28,30,-1,32,34,36,38,40,-1,42,-1,44,46,48,50,52,-1,54,-1,-1,-1,56,58,60,62,64,-1,-1,-1,-1,-1,-1,-1,-1,-1,-1,-1,-1,-1,-1,-1,-1,-1,-1,-1,-1,-1,-1,-1,-1],"split_conditions":[1.6564286E3,7.75E0,8E0,3.332E4,5.3E1,1.0446E4,7.7873334E2,1.964E3,2.309401E0,3.420464E0,1.4310427E3,-2.089466E-1,1.1595E4,1.2920214E-1,2.2398655E3,2.85E2,9.96416E5,-3.1211355E-1,1.024E3,8.082904E0,2.35E2,0E0,1.2126E4,6.58373E-2,2.29E2,-3.0974182E-1,1.6601428E3,6.4E1,4.8E1,2.76E2,3.0016E4,-3.2347253E-1,4.4E1,-2.7377686E-1,3.5089335E-1,3.4941536E-1,2.5786368E2,3.011641E6,3.155697E-2,1.1595E4,2E0,7.680575E-2,3.416197E-1,1.8492183E-1,-1.938084E-1,-1.9439209E-1,3.5393053E-1,2.5205466E-1,-2.8016177E-1,-3.4926867E-1,1.1471062E-1,3.9549354E-1,-3.9999932E-1,2.864126E-1,-4.1561523E-1,-3.1008935E-1,-9.020152E-2,-3.1003088E-1,-1.769284E-1,1.8553001E0,-2.8803924E-1,-3.3991447E-1,3.777602E-1,2.1938743E-1,-3.096551E-1],"split_indices":[12,6,10,5,5,7,6,13,4,1,12,0,7,0,4,0,13,0,0,4,0,2,7,0,2,0,6,9,9,9,0,0,9,0,0,0,4,13,1,7,0,0,0,0,0,0,0,0,0,0,0,0,0,0,0,0,0,0,0,0,0,0,0,0,0],"split_type":[0,0,0,0,0,0,0,0,0,0,0,0,0,0,0,0,0,0,0,0,0,0,0,0,0,0,0,0,0,0,0,0,0,0,0,0,0,0,0,0,0,0,0,0,0,0,0,0,0,0,0,0,0,0,0,0,0,0,0,0,0,0,0,0,0],"sum_hessian":[8.095459E4,7.455987E4,6.394726E3,2.5219951E4,4.9339918E4,6.0256626E3,3.6906335E2,1.9431154E4,5.7887974E3,6.1474805E2,4.872517E4,1.6833947E0,6.023979E3,1.9307411E0,3.6713263E2,1.6360361E4,3.0707927E3,5.037352E3,7.5144543E2,2.5405402E2,3.6069403E2,4.8134082E4,5.910882E2,1.6174865E0,6.022362E3,3.6484317E2,2.289436E0,6.5284233E3,9.831938E3,2.3283691E3,7.4242365E2,3.2268906E2,4.287564E2,7.461427E0,2.4659259E2,6.3491467E1,2.9720255E2,3.1152775E4,1.6981309E4,2.4302252E2,3.4806567E2,2.1815355E0,6.02018E3,1.186452E0,1.1029842E0,1.4889974E3,5.039426E3,5.148065E3,4.683873E3,2.288139E3,4.0230247E1,5.5394226E2,1.884814E2,3.7864465E2,5.011176E1,2.958587E2,1.3438351E0,3.0987791E4,1.6498334E2,1.10742874E2,1.6870564E4,2.258829E1,2.2043423E2,1.3287268E0,3.4673694E2],"tree_param":{"num_deleted":"0","num_feature":"14","num_nodes":"65","size_leaf_vector":"1"}},{"base_weights":[-5.182272E-1,-6.4295715E-1,9.7779644E-1,-9.9425144E-2,-9.456955E-1,1.0971582E0,-1.0029593E0,1.1114801E-1,-8.995375E-1,7.513741E-2,-9.585354E-1,-2.2597982E-1,1.0978458E0,1.68993E-1,-1.0132709E0,-1.2806064E-1,6.2453455E-1,-3.0884185E-1,-7.884982E-2,1.0515357E0,-6.3341117E-1,-9.7428596E-1,-3.9900726E-1,-1.1973514E-1,3.2954752E-1,-3.0644682E-1,-1.2067505E-2,-9.6539575E-1,3.5634354E-1,8.4681594E-1,-1.030232E0,-3.17109E-1,5.9544885E-1,-2.6245382E-1,1.1141701E0,3.389085E-1,-1.0194236E0,-8.375046E-1,-1.0149826E0,8.016827E-1,-1.0154772E0,1.570339E-1,-2.2284852E-1,-1.8163408E-1,1.8344218E-1,-3.213827E-1,-1.4355959E-1,2.0792848E-1,-1.0817089E-1,2.68957E-1,-2.8740764E-1,5.8416426E-2,-3.1187293E-1,-3.3094826E-1,2.6074323E-1,3.358013E-1,1.24313295E-1,-3.0679303E-1,-7.7277504E-2,-2.7793974E-1,4.0635133E-1,6.2137103E-1,-3.0534935E-1,4.1468546E-1,-3.1080902E-1,-3.0817327E-1,-2.4964E-1],"categories":[],"categories_nodes":[],"categories_segments":[],"categories_sizes":[],"default_left":[0,0,0,0,0,0,0,0,0,0,0,0,0,0,0,0,0,0,0,0,0,0,0,0,0,0,0,0,0,0,0,0,0,0,0,0,0,0,0,0,0,0,0,0,0,0,0,0,0,0,0,0,0,0,0,0,0,0,0,0,0,0,0,0,0,0,0],"id":6,"left_children":[1,3,5,7,9,11,13,15,17,19,21,-1,23,-1,25,27,29,-1,31,33,35,37,39,41,-1,-1,43,45,47,49,51,-1,53,-1,55,-1,57,59,61,63,65,-1,-1,-1,-1,-1,-1,-1,-1,-1,-1,-1,-1,-1,-1,-1,-1,-1,-1,-1,-1,-1,-1,-1,-1,-1,-1],"loss_changes":[1.1831797E4,9.630148E3,1.1548281E3,3.5277063E3,4.9276562E2,6.6845703E0,5.058655E0,2.0357424E3,4.6510742E2,3.2433E2,3.2676172E2,0E0,3.75E0,0E0,2.2621155E0,4.587109E3,1.9388716E3,0E0,3.946348E2,2.4757675E1,1.8608565E2,2.001289E2,7.543713E2,1.7279058E0,0E0,0E0,1.5773157E0,2.131416E2,1.729959E3,4.176194E2,7.3494873E0,0E0,1.656459E2,0E0,2.2813416E-1,0E0,2.846985E-1,1.6168164E3,2.4668164E2,3.7053757E2,5.973511E-1,0E0,0E0,0E0,0E0,0E0,0E0,0E0,0E0,0E0,0E0,0E0,0E0,0E0,0E0,0E0,0E0,0E0,0E0,0E0,0E0,0E0,0E0,0E0,0E0,0E0,0E0],"parents":[2147483647,0,0,1,1,2,2,3,3,4,4,5,5,6,6,7,7,8,8,9,9,10,10,12,12,14,14,15,15,16,16,18,18,19,19,20,20,21,21,22,22,23,23,26,26,27,27,28,28,29,29,30,30,32,32,34,34,36,36,37,37,38,38,39,39,40,40],"right_children":[2,4,6,8,10,12,14,16,18,20,22,-1,24,-1,26,28,30,-1,32,34,36,38,40,42,-1,-1,44,46,48,50,52,-1,54,-1,56,-1,58,60,62,64,66,-1,-1,-1,-1,-1,-1,-1,-1,-1,-1,-1,-1,-1,-1,-1,-1,-1,-1,-1,-1,-1,-1,-1,-1,-1,-1],"split_conditions":[1.6564286E3,7.75E0,8E0,3.332E4,5.3E1,1.32E2,7.803128E2,2.309401E0,2.309401E0,3.420464E0,1.0323475E3,-2.2597982E-1,1.1595E4,1.68993E-1,2.2398655E3,6.4E1,2.37E2,-3.0884185E-1,1.024E3,8.082904E0,2.35E2,4.6E1,8.8E1,2.37E2,3.2954752E-1,-3.0644682E-1,8.072E3,2.47E2,2.85E2,6.32E2,2.897853E-2,-3.17109E-1,5E0,-2.6245382E-1,4.9E1,3.389085E-1,2.5786368E2,9.7655464E7,2E0,1E1,1.106E3,1.570339E-1,-2.2284852E-1,-1.8163408E-1,1.8344218E-1,-3.213827E-1,-1.4355959E-1,2.0792848E-1,-1.0817089E-1,2.68957E-1,-2.8740764E-1,5.8416426E-2,-3.1187293E-1,-3.3094826E-1,2.6074323E-1,3.358013E-1,1.24313295E-1,-3.0679303E-1,-7.7277504E-2,-2.7793974E-1,4.0635133E-1,6.2137103E-1,-3.0534935E-1,4.1468546E-1,-3.1080902E-1,-3.0817327E-1,-2.4964E-1],"split_indices":[12,6,10,5,5,2,4,4,4,1,4,0,7,0,4,9,2,0,0,4,0,12,5,2,0,0,9,2,0,13,1,0,13,0,13,0,4,3,11,10,2,0,0,0,0,0,0,0,0,0,0,0,0,0,0,0,0,0,0,0,0,0,0,0,0,0,0],"split_type":[0,0,0,0,0,0,0,0,0,0,0,0,0,0,0,0,0,0,0,0,0,0,0,0,0,0,0,0,0,0,0,0,0,0,0,0,0,0,0,0,0,0,0,0,0,0,0,0,0,0,0,0,0,0,0,0,0,0,0,0,0,0,0,0,0,0,0],"sum_hessian":[6.3403285E4,5.8524426E4,4.878862E3,2.0936562E4,3.7587863E4,4.6019893E3,2.7687292E2,1.6575178E4,4.3613853E3,4.668404E2,3.712102E4,1.3029567E0,4.600686E3,1.4601195E0,2.7541278E2,1.1307352E4,5.2678257E3,3.7650325E3,5.963529E2,1.961107E2,2.7072968E2,3.610396E4,1.0170601E3,2.3413222E0,4.5983447E3,2.7315033E2,2.262464E0,4.143667E3,7.163685E3,4.6444365E3,6.2338934E2,2.4311186E2,3.5324103E2,5.7672043E0,1.9034349E2,4.828088E1,2.224488E2,8.283781E3,2.782018E4,3.4493484E2,6.7212524E2,1.2307826E0,1.1105396E0,1.1741393E0,1.0883247E0,3.402511E3,7.411559E2,4.8741924E3,2.2894927E3,4.5204414E3,1.2399477E2,4.5692725E0,6.1882007E2,4.8598423E1,3.046426E2,1.8835306E2,1.9904313E0,2.2117168E2,1.2771229E0,7.9612563E3,3.225245E2,2.4983545E1,2.7795197E4,2.6230936E2,8.262549E1,6.272648E2,4.4860497E1],"tree_param":{"num_deleted":"0","num_feature":"14","num_nodes":"67","size_leaf_vector":"1"}},{"base_weights":[-4.907629E-1,-6.0619634E-1,9.5322263E-1,-1.0110426E-1,-9.281765E-1,1.0691469E0,-9.906727E-1,8.535307E-2,-8.910963E-1,1.3260843E-1,-9.4090915E-1,-2.0548463E-1,1.0699133E0,1.1993938E-1,-1.0047323E0,-4.2411588E-2,9.398657E-1,-9.640385E-1,5.417864E-1,1.0420824E0,-5.916974E-1,-9.919414E-1,-7.6010257E-1,-1.1257705E-1,3.212008E-1,-3.045287E-1,-1.4375255E-2,-2.0515198E-1,8.866014E-1,8.770882E-1,1.6272404E1,-3.064475E-1,-5.1428926E-1,-3.0234706E-1,1.0701851E0,-2.24274E-1,3.24213E-1,3.3249083E-1,-1.0084317E0,-1.0144598E0,-3.5336554E-1,1.4351094E0,-9.68162E-1,1.2316273E-1,-1.678949E-1,-1.6646351E-1,1.5044759E-1,-1.2551731E-1,1.5106215E-1,4.0575305E-1,-3.89176E-2,3.2342893E-1,-1.1641684E-1,1.0738963E1,-2.7903968E-1,1.6082257E-1,-3.2374206E-1,3.337004E-1,-2.9009387E-1,-3.0402294E-1,-6.605277E-2,-3.0537307E-1,-1.0691945E-1,9.6803993E-1,-3.08099E-1,1.5730067E0,2.6291487E-1,9.253226E-2,-2.9591888E-1],"categories":[],"categories_nodes":[],"categories_segments":[],"categories_sizes":[],"default_left":[0,0,0,0,0,0,0,0,0,0,0,0,0,0,0,0,0,0,0,0,0,0,0,0,0,0,0,0,0,0,0,0,0,0,0,0,0,0,0,0,0,0,0,0,0,0,0,0,0,0,0,0,0,0,0,0,0,0,0,0,0,0,0,0,0,0,0,0,0],"id":7,"left_children":[1,3,5,7,9,11,13,15,17,19,21,-1,23,-1,25,27,29,31,33,35,37,39,41,43,-1,-1,45,47,49,51,53,-1,55,-1,57,-1,-1,-1,59,61,63,65,67,-1,-1,-1,-1,-1,-1,-1,-1,-1,-1,-1,-1,-1,-1,-1,-1,-1,-1,-1,-1,-1,-1,-1,-1,-1,-1],"loss_changes":[8.314283E3,7.511039E3,8.331328E2,2.6487024E3,3.8108008E2,5.4177246E0,4.4743347E0,1.5883966E3,3.5940234E2,2.2156328E2,2.5641016E2,0E0,3.2353516E0,0E0,2.105072E0,1.9137906E3,1.8072051E3,8.39104E1,1.3779364E2,1.1112442E1,1.3384528E2,3.1215234E2,2.8053792E3,9.619879E-1,0E0,0E0,1.1574495E0,1.6279714E3,8.936544E2,4.7996204E2,2.6058657E3,0E0,2.2138217E2,0E0,1.1808456E1,0E0,0E0,0E0,3.6932373E-1,4.730078E1,1.792325E3,1.1271548E3,1.30854E2,0E0,0E0,0E0,0E0,0E0,0E0,0E0,0E0,0E0,0E0,0E0,0E0,0E0,0E0,0E0,0E0,0E0,0E0,0E0,0E0,0E0,0E0,0E0,0E0,0E0,0E0],"parents":[2147483647,0,0,1,1,2,2,3,3,4,4,5,5,6,6,7,7,8,8,9,9,10,10,12,12,14,14,15,15,16,16,17,17,18,18,19,19,20,20,21,21,22,22,23,23,26,26,27,27,28,28,29,29,30,30,32,32,34,34,38,38,39,39,40,40,41,41,42,42],"right_children":[2,4,6,8,10,12,14,16,18,20,22,-1,24,-1,26,28,30,32,34,36,38,40,42,44,-1,-1,46,48,50,52,54,-1,56,-1,58,-1,-1,-1,60,62,64,66,68,-1,-1,-1,-1,-1,-1,-1,-1,-1,-1,-1,-1,-1,-1,-1,-1,-1,-1,-1,-1,-1,-1,-1,-1,-1,-1],"split_conditions":[1.6564286E3,9E0,8E0,3.332E4,5.3E1,1.32E2,7.7873334E2,3.4641016E0,2.92E4,3.420464E0,2.29E2,-2.0548463E-1,1.1595E4,1.1993938E-1,2.2398655E3,1E2,8E0,2.309401E0,3.4641016E0,2.1908903E0,2.35E2,9.7655464E7,2.4E2,1.36474E5,3.212008E-1,-3.045287E-1,8.072E3,5E0,7.002534E-2,4.4E1,2.35E2,-3.064475E-1,2.6832817E0,-3.0234706E-1,3.0016E4,-2.24274E-1,3.24213E-1,3.3249083E-1,2.5786368E2,3.011641E6,1.2E1,2.8E2,6E0,1.2316273E-1,-1.678949E-1,-1.6646351E-1,1.5044759E-1,-1.2551731E-1,1.5106215E-1,4.0575305E-1,-3.89176E-2,3.2342893E-1,-1.1641684E-1,1.0738963E1,-2.7903968E-1,1.6082257E-1,-3.2374206E-1,3.337004E-1,-2.9009387E-1,-3.0402294E-1,-6.605277E-2,-3.0537307E-1,-1.0691945E-1,9.6803993E-1,-3.08099E-1,1.5730067E0,2.6291487E-1,9.253226E-2,-2.9591888E-1],"split_indices":[12,6,10,5,5,2,6,4,0,1,2,0,7,0,4,9,6,4,4,4,0,3,2,3,0,0,9,6,1,9,0,0,4,0,0,0,0,0,4,13,7,11,7,0,0,0,0,0,0,0,0,0,0,0,0,0,0,0,0,0,0,0,0,0,0,0,0,0,0],"split_type":[0,0,0,0,0,0,0,0,0,0,0,0,0,0,0,0,0,0,0,0,0,0,0,0,0,0,0,0,0,0,0,0,0,0,0,0,0,0,0,0,0,0,0,0,0,0,0,0,0,0,0,0,0,0,0,0,0,0,0,0,0,0,0,0,0,0,0,0,0],"sum_hessian":[4.9875965E4,4.6184516E4,3.6914502E3,1.7980195E4,2.8204318E4,3.4841243E3,2.0732588E2,1.454752E4,3.4326765E3,3.3440942E2,2.786991E4,1.131566E0,3.4829927E3,1.800725E0,2.0552516E2,1.2656152E4,1.8913668E3,3.2667087E3,1.6596767E2,1.4805968E2,1.8634975E2,2.17317E4,6.1382114E3,2.1308868E0,3.4808618E3,2.0337202E2,2.153137E0,1.0770248E4,1.8859052E3,1.8847073E3,6.6595426E0,2.8955464E3,3.7116235E2,4.1971756E1,1.239959E2,2.7403872E0,1.4531929E2,3.6361088E1,1.4998865E2,2.0990896E4,7.408017E2,5.308953E2,5.607316E3,1.0195829E0,1.1113039E0,1.0145322E0,1.1386049E0,8.279447E3,2.4908E3,1.2928848E3,5.930204E2,1.6264431E3,2.582642E2,2.6130054E0,4.046537E0,1.298156E2,2.4134676E2,1.2192717E2,2.0687327E0,1.4876355E2,1.2251043E0,2.0880865E4,1.1003149E2,1.16713135E2,6.2408856E2,6.6851944E1,4.6404337E2,7.8739845E1,5.528576E3],"tree_param":{"num_deleted":"0","num_feature":"14","num_nodes":"69","size_leaf_vector":"1"}},{"base_weights":[-4.5610443E-1,-5.5933744E-1,9.354662E-1,-7.4018344E-2,-9.0910804E-1,1.0492088E0,-9.7767806E-1,7.512098E-2,-8.727635E-1,-9.76719E-1,-7.017149E-1,-2.1374807E-1,1.0504742E0,1.4265418E-1,-9.94221E-1,1.4894874E-1,-1.201863E0,-3.0468658E-1,-8.065628E-2,-1.0003123E0,-3.7028244E-1,5.167266E-1,-9.252519E-1,-2.1157981E-1,1.3372992E-1,1.9548805E-2,3.1529686E-1,2.2917576E-2,-3.026083E-1,-7.406297E-1,2.7307212E-1,-1.5973659E0,-1.1504706E0,-3.081502E-1,4.737474E-1,9.061123E-1,-1.0061421E0,1.6371353E0,-3.058844E-1,-7.2091895E-1,1.3577812E0,1.2699836E-1,-9.46848E-1,-3.2988513E-1,9.732499E-2,4.0255642E-1,2.8839426E-2,-6.3950455E-1,-2.9923913E-1,-3.6330497E-1,-3.0707493E-1,2.1219127E-1,-3.7411478E-1,-2.442548E-1,3.229383E-1,-3.032142E-1,-8.5052826E-2,-3.1510016E-1,5.8231544E-1,4.813323E-2,-3.379366E-1,6.851914E-1,-3.9403096E-2,1.6373744E0,-3.0333298E-1,-8.199901E-2,-2.9044837E-1],"categories":[],"categories_nodes":[],"categories_segments":[],"categories_sizes":[],"default_left":[0,0,0,0,0,0,0,0,0,0,0,0,0,0,0,0,0,0,0,0,0,0,0,0,0,0,0,0,0,0,0,0,0,0,0,0,0,0,0,0,0,0,0,0,0,0,0,0,0,0,0,0,0,0,0,0,0,0,0,0,0,0,0,0,0,0,0],"id":8,"left_children":[1,3,5,7,9,11,13,15,17,19,21,23,25,-1,27,29,31,-1,33,35,37,39,41,-1,-1,-1,-1,-1,-1,43,45,47,49,-1,51,53,55,57,-1,59,61,63,65,-1,-1,-1,-1,-1,-1,-1,-1,-1,-1,-1,-1,-1,-1,-1,-1,-1,-1,-1,-1,-1,-1,-1,-1],"loss_changes":[5.7798213E3,6.35749E3,6.0569116E2,1.868855E3,3.0451562E2,4.416992E0,4.233841E0,1.2465525E3,2.7923682E2,2.344502E2,1.4589314E3,1.4349022E0,1.262207E0,0E0,2.4790497E0,1.3802764E3,1.285083E1,0E0,1.9896883E2,1.7647656E2,8.0484894E2,8.657179E2,1.0294824E2,0E0,0E0,0E0,0E0,0E0,0E0,5.855939E2,2.0742334E3,2.3686829E1,3.701355E0,0E0,9.70224E1,1.514349E1,5.174414E1,1.2535687E2,0E0,1.20552536E2,6.829603E2,5.629925E2,6.3386963E1,0E0,0E0,0E0,0E0,0E0,0E0,0E0,0E0,0E0,0E0,0E0,0E0,0E0,0E0,0E0,0E0,0E0,0E0,0E0,0E0,0E0,0E0,0E0,0E0],"parents":[2147483647,0,0,1,1,2,2,3,3,4,4,5,5,6,6,7,7,8,8,9,9,10,10,11,11,12,12,14,14,15,15,16,16,18,18,19,19,20,20,21,21,22,22,29,29,30,30,31,31,32,32,34,34,35,35,36,36,37,37,39,39,40,40,41,41,42,42],"right_children":[2,4,6,8,10,12,14,16,18,20,22,24,26,-1,28,30,32,-1,34,36,38,40,42,-1,-1,-1,-1,-1,-1,44,46,48,50,-1,52,54,56,58,-1,60,62,64,66,-1,-1,-1,-1,-1,-1,-1,-1,-1,-1,-1,-1,-1,-1,-1,-1,-1,-1,-1,-1,-1,-1,-1,-1],"split_conditions":[1.6564286E3,7.75E0,8E0,3.332E4,2.27E2,1.1595E4,7.803128E2,3.0016E4,2.309401E0,9.7655464E7,2.4E2,1.5789646E3,2.29E2,1.4265418E-1,3.51E2,2.51E2,7E0,-3.0468658E-1,1.024E3,5.3E1,1.2E1,2.35E2,6E0,-2.1157981E-1,1.3372992E-1,1.9548805E-2,3.1529686E-1,2.2917576E-2,-3.026083E-1,2.35E2,2.52E2,8.8E1,8.8E1,-3.081502E-1,4.4E1,2.1908903E0,3.011641E6,6E0,-3.058844E-1,8.8E1,2.37E2,8.8E1,5.3E1,-3.2988513E-1,9.732499E-2,4.0255642E-1,2.8839426E-2,-6.3950455E-1,-2.9923913E-1,-3.6330497E-1,-3.0707493E-1,2.1219127E-1,-3.7411478E-1,-2.442548E-1,3.229383E-1,-3.032142E-1,-8.5052826E-2,-3.1510016E-1,5.8231544E-1,4.813323E-2,-3.379366E-1,6.851914E-1,-3.9403096E-2,1.6373744E0,-3.0333298E-1,-8.199901E-2,-2.9044837E-1],"split_indices":[12,6,10,5,2,7,4,0,4,3,2,4,2,0,0,0,3,0,0,5,7,2,7,0,0,0,0,0,0,2,0,5,5,0,9,4,13,7,0,5,2,5,5,0,0,0,0,0,0,0,0,0,0,0,0,0,0,0,0,0,0,0,0,0,0,0,0],"split_type":[0,0,0,0,0,0,0,0,0,0,0,0,0,0,0,0,0,0,0,0,0,0,0,0,0,0,0,0,0,0,0,0,0,0,0,0,0,0,0,0,0,0,0,0,0,0,0,0,0,0,0,0,0,0,0,0,0,0,0,0,0,0,0,0,0,0,0],"sum_hessian":[4.0229117E4,3.7451402E4,2.7777166E3,1.5686725E4,2.1764678E4,2.622266E3,1.5545067E2,1.3219353E4,2.467372E3,1.6410938E4,5.35374E3,2.4566495E0,2.6198093E3,1.4374263E0,1.5401324E2,1.2497691E4,7.216602E2,2.0901301E3,3.7724207E2,1.5795756E4,6.1518066E2,8.297391E2,4.524001E3,1.367854E0,1.0887954E0,1.4360256E0,2.6183733E3,1.9972293E0,1.52016E2,1.5296798E3,1.0968012E4,7.953069E1,6.421296E2,1.3902965E2,2.3821243E2,4.7684727E1,1.5748071E4,1.4998355E2,4.6519714E2,3.357752E2,4.9396384E2,9.088384E1,4.433117E3,1.1440356E3,3.8564417E2,1.5569451E3,9.411067E3,4.0714264E1,3.8816433E1,4.2892084E2,2.132087E2,2.1026323E2,2.794921E1,3.9558992E0,4.372883E1,1.5648669E4,9.940202E1,1.4988374E1,1.3499518E2,1.06002174E2,2.2977303E2,3.0421664E2,1.8974722E2,1.5321608E1,7.556223E1,1.3640552E2,4.2967114E3],"tree_param":{"num_deleted":"0","num_feature":"14","num_nodes":"67","size_leaf_vector":"1"}},{"base_weights":[-4.1486803E-1,-5.04871E-1,9.223137E-1,-6.4215794E-2,-8.896406E-1,1.0349865E0,-9.592835E-1,7.570344E-2,-7.407083E-1,-9.69056E-1,-6.61566E-1,-1.9082525E-1,1.036458E0,1.125538E-1,-9.813897E-1,-1.415813E-1,6.013686E-1,-9.60696E-1,2.9543424E-2,-9.9360114E-1,-3.6694568E-1,3.6106503E-1,-8.9433736E-1,-1.9293375E-1,1.1710508E-1,3.1027159E-2,3.111099E-1,4.2096782E-2,-3.0119717E-1,2.7906072E-1,-3.083006E-1,-3.7936255E-1,7.2306037E-1,8.7680286E-1,-9.8885584E-1,-6.1603725E-1,3.2929013E0,8.862542E-1,-9.99427E-1,1.2982227E0,-3.040567E-1,-5.2145254E-2,2.0842633E0,-1.9776791E-1,-9.2198294E-1,-1.9601193E-1,2.560913E-1,-2.1683687E-1,1.491954E-1,2.8284407E-1,-2.4437766E-1,2.3636441E-1,-2.7750203E-1,-9.3058324E-1,5.313358E-1,-3.0288363E-1,-2.0822819E-1,1.3602097E0,-2.4487023E-1,-3.0665419E-1,2.6101434E0,-2.3083544E-1,3.1867108E-1,-3.016625E-1,-6.591758E-2,-3.0106306E-1,4.5664063E-1,7.2514766E-1,-1.15712084E-1,2.5267918E0,4.2334244E-1,-3.0060828E-1,3.2141855E-1,-1.9870295E-1,-2.9963484E-1],"categories":[],"categories_nodes":[],"categories_segments":[],"categories_sizes":[],"default_left":[0,0,0,0,0,0,0,0,0,0,0,0,0,0,0,0,0,0,0,0,0,0,0,0,0,0,0,0,0,0,0,0,0,0,0,0,0,0,0,0,0,0,0,0,0,0,0,0,0,0,0,0,0,0,0,0,0,0,0,0,0,0,0,0,0,0,0,0,0,0,0,0,0,0,0],"id":9,"left_children":[1,3,5,7,9,11,13,15,17,19,21,23,25,-1,27,29,31,33,35,37,39,41,43,-1,-1,-1,-1,45,-1,47,-1,49,51,53,55,57,59,61,63,65,-1,67,69,71,73,-1,-1,-1,-1,-1,-1,-1,-1,-1,-1,-1,-1,-1,-1,-1,-1,-1,-1,-1,-1,-1,-1,-1,-1,-1,-1,-1,-1,-1,-1],"loss_changes":[3.9756333E3,5.247137E3,4.426692E2,1.3656559E3,2.986045E2,3.744629E0,3.8558044E0,1.365637E3,4.1901367E2,1.8070996E2,1.01678064E3,1.092717E0,9.460449E-1,0E0,2.7388E0,3.1534768E3,4.17599E2,1.00390015E2,1.1613591E3,1.2980762E2,5.1971387E2,5.6437537E2,6.6806885E1,0E0,0E0,0E0,0E0,2.5209293E0,0E0,1.2548948E3,0E0,2.2326346E2,3.3308472E2,1.1068029E2,1.089209E1,4.7823096E2,2.1332524E3,1.1568918E1,5.5731445E1,7.116077E1,0E0,5.282133E2,6.4215656E2,1.3791862E2,6.605078E1,0E0,0E0,0E0,0E0,0E0,0E0,0E0,0E0,0E0,0E0,0E0,0E0,0E0,0E0,0E0,0E0,0E0,0E0,0E0,0E0,0E0,0E0,0E0,0E0,0E0,0E0,0E0,0E0,0E0,0E0],"parents":[2147483647,0,0,1,1,2,2,3,3,4,4,5,5,6,6,7,7,8,8,9,9,10,10,11,11,12,12,14,14,15,15,16,16,17,17,18,18,19,19,20,20,21,21,22,22,27,27,29,29,31,31,32,32,33,33,34,34,35,35,36,36,37,37,38,38,39,39,41,41,42,42,43,43,44,44],"right_children":[2,4,6,8,10,12,14,16,18,20,22,24,26,-1,28,30,32,34,36,38,40,42,44,-1,-1,-1,-1,46,-1,48,-1,50,52,54,56,58,60,62,64,66,-1,68,70,72,74,-1,-1,-1,-1,-1,-1,-1,-1,-1,-1,-1,-1,-1,-1,-1,-1,-1,-1,-1,-1,-1,-1,-1,-1,-1,-1,-1,-1,-1,-1],"split_conditions":[1.6564286E3,7.75E0,1.2126E4,2.51E2,2.27E2,1.1595E4,7.7873334E2,2.309401E0,1.04E2,9.7655464E7,2.4E2,1.5789646E3,2.29E2,1.125538E-1,3.51E2,8.8E1,5E0,5.3E1,9.4E1,5.3E1,1.2E1,6.907143E2,5.3E1,-1.9293375E-1,1.1710508E-1,3.1027159E-2,3.111099E-1,1.3003516E3,-3.0119717E-1,6.4E1,-3.083006E-1,8.8E1,6.32E2,3.9717782E-1,2E0,1.689E3,2.896E4,2.1908903E0,3.011641E6,6E0,-3.040567E-1,6E0,7.266E2,2.47E2,1.2E1,-1.9601193E-1,2.560913E-1,-2.1683687E-1,1.491954E-1,2.8284407E-1,-2.4437766E-1,2.3636441E-1,-2.7750203E-1,-9.3058324E-1,5.313358E-1,-3.0288363E-1,-2.0822819E-1,1.3602097E0,-2.4487023E-1,-3.0665419E-1,2.6101434E0,-2.3083544E-1,3.1867108E-1,-3.016625E-1,-6.591758E-2,-3.0106306E-1,4.5664063E-1,7.2514766E-1,-1.15712084E-1,2.5267918E0,4.2334244E-1,-3.0060828E-1,3.2141855E-1,-1.9870295E-1,-2.9963484E-1],"split_indices":[12,6,7,2,2,7,6,4,9,3,2,4,2,0,0,5,13,5,13,5,7,12,5,0,0,0,0,4,0,9,0,5,13,1,8,3,2,4,13,7,0,7,12,2,7,0,0,0,0,0,0,0,0,0,0,0,0,0,0,0,0,0,0,0,0,0,0,0,0,0,0,0,0,0,0],"split_type":[0,0,0,0,0,0,0,0,0,0,0,0,0,0,0,0,0,0,0,0,0,0,0,0,0,0,0,0,0,0,0,0,0,0,0,0,0,0,0,0,0,0,0,0,0,0,0,0,0,0,0,0,0,0,0,0,0,0,0,0,0,0,0,0,0,0,0,0,0,0,0,0,0,0,0],"sum_hessian":[3.302896E4,3.0946629E4,2.0823325E3,1.4426233E4,1.6520395E4,1.9651089E3,1.1722363E2,1.1954556E4,2.471678E3,1.2251268E4,4.269128E3,2.202022E0,1.9629069E3,1.6499755E0,1.15573654E2,8.458817E3,3.495738E3,1.9223872E3,5.492906E2,1.1770779E4,4.8048776E2,7.9146124E2,3.4776667E3,1.1783922E0,1.02363E0,1.3201005E0,1.9615868E3,2.4783447E0,1.13095314E2,5.736351E3,2.7224663E3,3.8564587E2,3.1100923E3,2.85612E1,1.893826E3,4.5924976E2,9.004083E1,3.5899364E1,1.173488E4,1.341067E2,3.4638107E2,6.391641E2,1.522971E2,1.33065E2,3.3446016E3,1.4395689E0,1.0387758E0,1.0257257E3,4.710625E3,9.521815E1,2.904277E2,2.992899E3,1.1719326E2,4.7885933E0,2.3772606E1,1.7669756E3,1.26850426E2,1.637423E1,4.4287552E2,5.0530224E1,3.9510612E1,3.1250954E0,3.277427E1,1.164328E4,9.160025E1,1.1580476E1,1.2252624E2,7.532185E1,5.638422E2,1.351566E1,1.3878145E2,8.1579285E1,5.148573E1,7.656765E2,2.578925E3],"tree_param":{"num_deleted":"0","num_feature":"14","num_nodes":"75","size_leaf_vector":"1"}},{"base_weights":[-3.9548776E-1,-2.1123347E-1,-1.0069277E0,1.7661935E-1,-5.9604746E-1,-3.0263373E-1,3.2664347E-2,3.3660614E-1,-6.6142327E-1,-9.7971183E-1,7.750851E-2,1.1465014E0,-8.268651E-1,6.460496E-1,-1.1457912E-1,-9.824054E-1,-3.1650856E-1,-3.0508828E-1,-8.758331E-1,6.5643096E-1,-8.774036E-1,-8.726975E-3,-2.728614E-1,1.003575E0,-3.0580845E-2,-4.2844677E-1,7.949202E-1,-1.0058447E0,3.5752137E0,5.2732486E-1,-9.657335E-1,-1.0186841E0,-6.696715E-1,3.49922E-1,1.0448556E0,-1.0055412E0,-6.379517E-1,-2.5654796E-1,3.206589E-1,-2.4270992E-1,1.803529E-1,-1.241245E-4,-3.6771736E-1,3.1920323E-1,-3.4642196E-1,-3.0630326E-1,-1.9919616E-1,2.8211195E0,-2.2001612E-1,8.121013E-2,1.317204E0,-3.2875845E-1,4.2327893E-1,-3.062026E-1,1.4748693E-1,8.5629016E-2,-2.9518482E-1,1.24054156E-1,-3.1354323E-1,3.2488346E-1,-2.9567096E-1,-2.3617513E-1,-3.0427083E-1,4.3094136E-2,-2.874817E-1],"categories":[],"categories_nodes":[],"categories_segments":[],"categories_sizes":[],"default_left":[0,0,0,0,0,0,0,0,0,0,0,0,0,0,0,0,0,0,0,0,0,0,0,0,0,0,0,0,0,0,0,0,0,0,0,0,0,0,0,0,0,0,0,0,0,0,0,0,0,0,0,0,0,0,0,0,0,0,0,0,0,0,0,0,0],"id":10,"left_children":[1,3,5,7,9,-1,11,13,15,17,19,-1,21,23,25,27,29,-1,31,33,35,-1,-1,37,39,41,43,45,47,49,51,53,55,57,59,61,63,-1,-1,-1,-1,-1,-1,-1,-1,-1,-1,-1,-1,-1,-1,-1,-1,-1,-1,-1,-1,-1,-1,-1,-1,-1,-1,-1,-1],"loss_changes":[3.0049663E3,3.05961E3,1.192041E1,1.3691329E3,2.6592258E3,0E0,4.207291E1,1.1971377E3,1.8092639E2,2.4475586E1,2.0654573E3,0E0,6.700964E-1,1.2303975E3,9.963063E2,9.412738E1,4.3361322E2,0E0,5.0489502E1,2.765536E2,4.262793E1,0E0,0E0,4.0474146E2,8.656907E2,8.853938E2,4.7102808E2,3.6973877E0,1.2130072E2,3.402697E2,1.3983951E2,3.5823975E0,2.1463016E2,1.15901E2,8.036853E1,9.4177246E-1,1.2389673E2,0E0,0E0,0E0,0E0,0E0,0E0,0E0,0E0,0E0,0E0,0E0,0E0,0E0,0E0,0E0,0E0,0E0,0E0,0E0,0E0,0E0,0E0,0E0,0E0,0E0,0E0,0E0,0E0],"parents":[2147483647,0,0,1,1,2,2,3,3,4,4,6,6,7,7,8,8,9,9,10,10,12,12,13,13,14,14,15,15,16,16,18,18,19,19,20,20,23,23,24,24,25,25,26,26,27,27,28,28,29,29,30,30,31,31,32,32,33,33,34,34,35,35,36,36],"right_children":[2,4,6,8,10,-1,12,14,16,18,20,-1,22,24,26,28,30,-1,32,34,36,-1,-1,38,40,42,44,46,48,50,52,54,56,58,60,62,64,-1,-1,-1,-1,-1,-1,-1,-1,-1,-1,-1,-1,-1,-1,-1,-1,-1,-1,-1,-1,-1,-1,-1,-1,-1,-1,-1,-1],"split_conditions":[2.3E1,8.8E1,1.3572285E3,2.64E2,6E0,-3.0263373E-1,1.25E2,8.3E1,2.896E4,1.6739483E1,4E0,1.1465014E0,5.0626315E2,3.04E2,1.100743E6,5.792E3,2.92E4,-3.0508828E-1,1.024E3,1.6062E4,2.56E2,-8.726975E-3,-2.728614E-1,2.2E1,2.27E2,1.964E3,3.0016E4,1.0752688E4,8.1989044E2,1.8E2,4.6159332E2,1.7838695E3,1.16E2,3.2863352E0,9.73E2,1.5E1,2.45E2,-2.5654796E-1,3.206589E-1,-2.4270992E-1,1.803529E-1,-1.241245E-4,-3.6771736E-1,3.1920323E-1,-3.4642196E-1,-3.0630326E-1,-1.9919616E-1,2.8211195E0,-2.2001612E-1,8.121013E-2,1.317204E0,-3.2875845E-1,4.2327893E-1,-3.062026E-1,1.4748693E-1,8.5629016E-2,-2.9518482E-1,1.24054156E-1,-3.1354323E-1,3.2488346E-1,-2.9567096E-1,-2.3617513E-1,-3.0427083E-1,4.3094136E-2,-2.874817E-1],"split_indices":[8,5,12,2,8,0,3,13,2,1,11,0,6,0,3,9,2,0,0,0,2,0,0,5,2,13,0,1,4,9,1,12,9,4,13,3,0,0,0,0,0,0,0,0,0,0,0,0,0,0,0,0,0,0,0,0,0,0,0,0,0,0,0,0,0],"split_type":[0,0,0,0,0,0,0,0,0,0,0,0,0,0,0,0,0,0,0,0,0,0,0,0,0,0,0,0,0,0,0,0,0,0,0,0,0,0,0,0,0,0,0,0,0,0,0,0,0,0,0,0,0,0,0,0,0,0,0,0,0,0,0,0,0],"sum_hessian":[2.667366E4,2.049803E4,6.1756304E3,1.0208977E4,1.0289053E4,6.164682E3,1.0948338E1,8.572952E3,1.6360239E3,6.554875E3,3.734178E3,1.3871628E0,9.561174E0,5.084997E3,3.4879556E3,8.4645416E2,7.8956976E2,4.8183237E3,1.7365516E3,2.324964E3,1.4092139E3,1.0247191E0,8.536455E0,3.3267104E3,1.7582865E3,2.593477E3,8.944784E2,8.4289856E2,3.555619E0,3.434094E2,4.4616034E2,1.023452E3,7.130996E2,1.3005726E3,1.0243915E3,9.158936E2,4.9332025E2,1.1247489E2,3.2142356E3,7.875659E2,9.707206E2,1.6881588E3,9.0531824E2,7.86395E2,1.0808337E2,8.051903E2,3.7708256E1,1.008631E0,2.546988E0,3.2302258E2,2.0386799E1,4.2351102E2,2.2649307E1,1.0224283E3,1.0237317E0,1.7657469E2,5.365249E2,1.2445457E3,5.602703E1,1.0059865E3,1.840494E1,3.859078E1,8.7730286E2,1.4356523E2,3.4975504E2],"tree_param":{"num_deleted":"0","num_feature":"14","num_nodes":"65","size_leaf_vector":"1"}},{"base_weights":[-3.6816636E-1,-1.9505797E-1,-1.0042182E0,1.4344107E-1,-5.7078505E-1,-3.0193686E-1,2.704672E-2,-3.243568E-3,9.404229E-1,-9.629887E-1,6.482848E-2,5.940047E-1,-2.6647192E-1,2.999382E-1,-4.711626E-1,1.0791371E0,-8.1616443E-1,-3.0350098E-1,-8.334263E-1,5.7096523E-1,-8.34389E-1,2.7506658E-1,1.1597868E1,-9.3814665E-1,-1.4929941E-1,2.3456018E0,9.950857E-1,1.3698058E0,-9.7997683E-1,-1.0142559E0,-6.000582E-1,2.7426443E-1,1.0218589E0,-9.97867E-1,-5.631095E-1,1.5207738E-1,-1.9709021E-1,9.305004E0,1.1382053E0,-3.3628586E-1,8.376223E-2,3.2744414E-1,-1.6406558E-1,4.950288E-1,1.3164643E0,-2.3941839E-1,3.090995E-1,-3.0196017E-1,6.469794E-2,-3.0502927E-1,1.2610073E-1,3.9102573E-2,-3.0149847E-1,-9.779743E-2,1.1955743E-1,3.1951615E-1,-2.2913572E-1,-2.159845E-1,-3.0297732E-1,2.8753651E-2,-2.804698E-1],"categories":[],"categories_nodes":[],"categories_segments":[],"categories_sizes":[],"default_left":[0,0,0,0,0,0,0,0,0,0,0,0,0,0,0,0,0,0,0,0,0,0,0,0,0,0,0,0,0,0,0,0,0,0,0,0,0,0,0,0,0,0,0,0,0,0,0,0,0,0,0,0,0,0,0,0,0,0,0,0,0],"id":11,"left_children":[1,3,5,7,9,-1,11,13,15,17,19,-1,-1,21,23,25,27,-1,29,31,33,35,37,39,41,43,45,-1,47,49,51,53,55,57,59,-1,-1,-1,-1,-1,-1,-1,-1,-1,-1,-1,-1,-1,-1,-1,-1,-1,-1,-1,-1,-1,-1,-1,-1,-1,-1],"loss_changes":[2.360556E3,2.14376E3,1.0612793E1,1.0366686E3,1.9915017E3,0E0,2.1253042E1,1.0627346E3,3.3674487E2,3.031543E1,1.3882673E3,0E0,0E0,1.2741716E3,4.425664E2,1.337002E2,9.3921425E1,0E0,5.6569214E1,2.6081293E2,4.8158447E1,9.8074365E2,1.3918284E3,2.677124E2,8.613397E2,1.0470288E2,7.667236E1,0E0,3.3694077E0,3.1690674E0,1.7580995E2,8.802885E1,6.0527527E1,1.5656128E0,1.01856384E2,0E0,0E0,0E0,0E0,0E0,0E0,0E0,0E0,0E0,0E0,0E0,0E0,0E0,0E0,0E0,0E0,0E0,0E0,0E0,0E0,0E0,0E0,0E0,0E0,0E0,0E0],"parents":[2147483647,0,0,1,1,2,2,3,3,4,4,6,6,7,7,8,8,9,9,10,10,13,13,14,14,15,15,16,16,18,18,19,19,20,20,21,21,22,22,23,23,24,24,25,25,26,26,28,28,29,29,30,30,31,31,32,32,33,33,34,34],"right_children":[2,4,6,8,10,-1,12,14,16,18,20,-1,-1,22,24,26,28,-1,30,32,34,36,38,40,42,44,46,-1,48,50,52,54,56,58,60,-1,-1,-1,-1,-1,-1,-1,-1,-1,-1,-1,-1,-1,-1,-1,-1,-1,-1,-1,-1,-1,-1,-1,-1,-1,-1],"split_conditions":[2.3E1,8.8E1,1.3572285E3,6.518333E2,6E0,-3.0193686E-1,8.8E1,4.38E2,1E1,1.6739483E1,4E0,5.940047E-1,-2.6647192E-1,2.76E2,1.04E2,3.564E3,3.614158E2,-3.0350098E-1,1.024E3,1.6062E4,2.56E2,1.964E3,8E0,4.6159332E2,7.002534E-2,1.96E2,1.1595E4,1.3698058E0,4E1,2.29382E5,4.6E1,2.7E1,4.6E2,1.5E1,2.45E2,1.5207738E-1,-1.9709021E-1,9.305004E0,1.1382053E0,-3.3628586E-1,8.376223E-2,3.2744414E-1,-1.6406558E-1,4.950288E-1,1.3164643E0,-2.3941839E-1,3.090995E-1,-3.0196017E-1,6.469794E-2,-3.0502927E-1,1.2610073E-1,3.9102573E-2,-3.0149847E-1,-9.779743E-2,1.1955743E-1,3.1951615E-1,-2.2913572E-1,-2.159845E-1,-3.0297732E-1,2.8753651E-2,-2.804698E-1],"split_indices":[8,5,12,12,8,0,5,0,10,1,11,0,0,6,9,7,4,0,0,0,2,13,2,1,1,9,7,0,13,3,12,13,13,3,0,0,0,0,0,0,0,0,0,0,0,0,0,0,0,0,0,0,0,0,0,0,0,0,0,0,0],"split_type":[0,0,0,0,0,0,0,0,0,0,0,0,0,0,0,0,0,0,0,0,0,0,0,0,0,0,0,0,0,0,0,0,0,0,0,0,0,0,0,0,0,0,0,0,0,0,0,0,0,0,0,0,0,0,0,0,0,0,0,0,0],"sum_hessian":[2.1439736E4,1.6854037E4,4.5857007E3,8.86659E3,7.9874463E3,4.575795E3,9.905753E0,7.4891978E3,1.3773921E3,4.939207E3,3.048239E3,2.7898047E0,7.115948E0,4.5448096E3,2.9443884E3,1.2769403E3,1.0045178E2,3.5852798E3,1.3539272E3,1.9506528E3,1.0975863E3,4.5358486E3,8.961008E0,1.2005797E3,1.7438087E3,7.7797714E1,1.1991426E3,2.1732867E0,9.8278496E1,7.6094714E2,5.9298004E2,1.1774594E3,7.731934E2,6.831994E2,4.143869E2,3.6326309E3,9.032175E2,1.7161267E0,7.244882E0,1.0438998E3,1.5667989E2,4.2275043E2,1.3210583E3,5.938505E1,1.8412663E1,2.2698608E1,1.176444E3,9.629773E1,1.9807678E0,7.599098E2,1.0373564E0,2.1173804E2,3.81242E2,2.0166528E2,9.7579407E2,7.5532556E2,1.7867847E1,3.0932426E1,6.52267E2,1.4973712E2,2.6464978E2],"tree_param":{"num_deleted":"0","num_feature":"14","num_nodes":"61","size_leaf_vector":"1"}},{"base_weights":[-3.399543E-1,-1.8087362E-1,-1.0020431E0,9.8107815E-2,-5.4699177E-1,-3.0140632E-1,1.3415426E-2,-1.1325094E-2,1.0058806E0,-9.5385444E-1,4.924792E-2,4.585491E-1,-7.40157E-1,5.169369E-2,-1.1335298E0,-3.0717456E-1,1.0158935E0,-3.0247545E-1,-8.14738E-1,4.7874728E-1,-7.79432E-1,-2.5491187E-1,-9.85535E-3,-4.307533E-1,1.788675E-1,-4.3646446E-1,-3.2951665E-1,1.0221293E0,-2.4576344E-1,-9.924973E-1,-4.754344E-1,2.0546144E-1,9.986485E-1,-9.894607E-1,-4.7775692E-1,-2.9716128E-1,7.653379E-2,1.2840597E-1,-1.01971366E-1,6.376354E-1,3.0368587E-1,-3.044504E-1,1.8588433E-1,2.4733214E0,-2.6325032E-1,-3.0885905E-1,7.76303E-2,3.119124E-1,-2.8186336E-1,-1.9174783E-1,-3.0190298E-1,4.088401E-2,-2.6170248E-1],"categories":[],"categories_nodes":[],"categories_segments":[],"categories_sizes":[],"default_left":[0,0,0,0,0,0,0,0,0,0,0,0,0,0,0,0,0,0,0,0,0,0,0,0,0,0,0,0,0,0,0,0,0,0,0,0,0,0,0,0,0,0,0,0,0,0,0,0,0,0,0,0,0],"id":12,"left_children":[1,3,5,7,9,-1,11,13,15,17,19,-1,21,23,25,-1,27,-1,29,31,33,-1,-1,35,37,-1,-1,39,-1,41,43,45,47,49,51,-1,-1,-1,-1,-1,-1,-1,-1,-1,-1,-1,-1,-1,-1,-1,-1,-1,-1],"loss_changes":[1.8510284E3,1.4476229E3,9.156738E0,7.991243E2,1.4869098E3,0E0,1.2355277E1,5.0781262E2,1.8629028E1,2.6748291E1,8.8552985E2,0E0,5.329995E-1,4.1722635E2,2.713379E0,0E0,1.0697937E1,0E0,6.1611023E1,2.3261325E2,5.3342285E1,0E0,0E0,5.449208E2,6.957023E2,0E0,0E0,7.1795654E0,0E0,2.4919006E1,1.2546086E3,7.105693E1,4.588562E1,2.312622E0,8.505303E1,0E0,0E0,0E0,0E0,0E0,0E0,0E0,0E0,0E0,0E0,0E0,0E0,0E0,0E0,0E0,0E0,0E0,0E0],"parents":[2147483647,0,0,1,1,2,2,3,3,4,4,6,6,7,7,8,8,9,9,10,10,12,12,13,13,14,14,16,16,18,18,19,19,20,20,23,23,24,24,27,27,29,29,30,30,31,31,32,32,33,33,34,34],"right_children":[2,4,6,8,10,-1,12,14,16,18,20,-1,22,24,26,-1,28,-1,30,32,34,-1,-1,36,38,-1,-1,40,-1,42,44,46,48,50,52,-1,-1,-1,-1,-1,-1,-1,-1,-1,-1,-1,-1,-1,-1,-1,-1,-1,-1],"split_conditions":[2.3E1,3.89E2,1.3572285E3,1.3003516E3,6E0,-3.0140632E-1,1.25E2,3.0016E4,9.085E3,1.6739483E1,4E0,4.585491E-1,4.4E1,6E1,7E0,-3.0717456E-1,2.4E2,-3.0247545E-1,8.8E1,1.6062E4,2.56E2,-2.5491187E-1,-9.85535E-3,4.619151E1,1.0189952E-1,-4.3646446E-1,-3.2951665E-1,1.3572285E3,-2.4576344E-1,2E0,9.6E1,1.024E3,9.73E2,1.5E1,2.57E2,-2.9716128E-1,7.653379E-2,1.2840597E-1,-1.01971366E-1,6.376354E-1,3.0368587E-1,-3.044504E-1,1.8588433E-1,2.4733214E0,-2.6325032E-1,-3.0885905E-1,7.76303E-2,3.119124E-1,-2.8186336E-1,-1.9174783E-1,-3.0190298E-1,4.088401E-2,-2.6170248E-1],"split_indices":[8,5,12,4,8,0,3,0,7,1,11,0,13,9,3,0,2,0,9,0,2,0,0,1,1,0,0,12,0,8,9,0,13,3,2,0,0,0,0,0,0,0,0,0,0,0,0,0,0,0,0,0,0],"split_type":[0,0,0,0,0,0,0,0,0,0,0,0,0,0,0,0,0,0,0,0,0,0,0,0,0,0,0,0,0,0,0,0,0,0,0,0,0,0,0,0,0,0,0,0,0,0,0,0,0,0,0,0,0],"sum_hessian":[1.7575078E4,1.4171381E4,3.4036973E3,8.043204E3,6.128177E3,3.3948665E3,8.830706E0,7.178782E3,8.644218E2,3.642205E3,2.4859717E3,2.5916917E0,6.239014E0,6.797987E3,3.8079538E2,3.7461445E0,8.606757E2,2.613882E3,1.0283231E3,1.6376241E3,8.483476E2,5.227967E0,1.0110472E0,1.4176393E3,5.3803477E3,3.3554024E1,3.4724136E2,8.5820245E2,2.4732306E0,6.735361E2,3.5478708E2,1.0743092E3,5.6331494E2,4.987994E2,3.4954816E2,7.8032E2,6.3731934E2,3.6348171E3,1.7455306E3,5.688101E0,8.5251434E2,6.646966E2,8.8394985E0,1.477824E1,3.4000882E2,4.369418E1,1.030615E3,5.5208295E2,1.1231967E1,2.4720726E1,4.7407867E2,1.3700345E2,2.1254471E2],"tree_param":{"num_deleted":"0","num_feature":"14","num_nodes":"53","size_leaf_vector":"1"}},{"base_weights":[-3.0789056E-1,-8.0491835E-1,-1.05646655E-1,-1.0012765E0,1.4585108E-1,1.0091358E0,-2.2704767E-1,-9.6016866E-1,-1.2361513E0,1.295857E0,-6.2909055E-1,-9.1032785E-1,1.0707327E0,-9.953773E-2,-6.7754793E-1,-9.926413E-1,-5.1916295E-1,-1.3180956E0,-3.199581E-1,1.2060871E0,6.2553782E0,-1.007623E0,1.906719E0,-1.0023518E0,2.804159E-1,1.0132624E0,3.2004597E0,-1.6015585E-1,9.7187155E-1,-9.4938713E-1,-1.9509062E-1,-8.7407106E-1,-3.0082822E-1,1.8064653E0,-7.402105E-1,-4.0262592E-1,-2.9510164E-1,1.2207847E0,-1.4911088E-1,2.6865807E0,3.1926732E0,-1.019367E0,6.674113E-1,9.949181E0,-9.704353E-1,-3.0938578E-1,-2.5388096E-2,1.0490329E0,-1.4616665E0,1.3465818E0,4.382613E-1,-3.1976578E-1,2.9175082E-1,-3.063084E-1,1.0013685E0,-9.627058E-1,5.156521E-1,7.318421E-1,-8.72985E-1,1.1639085E-1,-3.011393E-1,1.8685751E0,-2.7839586E-1,-3.3440375E-1,1.1709079E-2,5.55633E-1,3.4727985E-1,2.470835E-1,1.1284456E0,-6.33819E-1,-3.0085093E-1,4.784819E-1,-1.6187084E-1,-2.7660534E-1,7.000404E0,-2.97992E-1,-7.2459154E-2,2.8480798E-1,4.0239727E-1,-4.6932933E-1,-1.988131E-2,-1.8584913E-1,4.5308925E-2,1.4299783E-1,-3.0853802E-1,3.023165E-1,-1.6666733E-1,2.9409808E-1,-2.916573E-1,-2.1600193E-1,6.420915E-1,9.873192E-1,1.3934232E-1,-7.216689E-4,-3.137238E-1],"categories":[],"categories_nodes":[],"categories_segments":[],"categories_sizes":[],"default_left":[0,0,0,0,0,0,0,0,0,0,0,0,0,0,0,0,0,0,0,0,0,0,0,0,0,0,0,0,0,0,0,0,0,0,0,0,0,0,0,0,0,0,0,0,0,0,0,0,0,0,0,0,0,0,0,0,0,0,0,0,0,0,0,0,0,0,0,0,0,0,0,0,0,0,0,0,0,0,0,0,0,0,0,0,0,0,0,0,0,0,0,0,0,0,0],"id":13,"left_children":[1,3,5,7,9,11,13,15,17,19,21,23,25,27,29,31,33,35,-1,37,39,41,43,45,-1,47,49,51,53,55,57,59,-1,61,63,-1,-1,65,-1,-1,67,69,71,73,75,-1,-1,77,79,-1,-1,81,83,-1,85,87,89,91,93,-1,-1,-1,-1,-1,-1,-1,-1,-1,-1,-1,-1,-1,-1,-1,-1,-1,-1,-1,-1,-1,-1,-1,-1,-1,-1,-1,-1,-1,-1,-1,-1,-1,-1,-1,-1],"loss_changes":[1.4803665E3,7.953457E2,1.4171088E3,3.2900635E1,6.513612E2,1.2255847E2,5.4231354E2,4.2576416E1,5.8552246E0,1.2343756E2,4.211776E2,6.4575176E0,1.1876477E2,4.78182E2,2.729696E2,2.4848633E0,1.0850545E2,1.4718018E0,0E0,7.8711853E0,1.2684296E1,8.169312E0,1.3303833E3,7.478981E-1,0E0,8.759247E1,5.1097656E1,5.0261487E2,2.4199493E1,2.6484863E1,4.7307788E2,3.773262E1,0E0,2.2809753E2,5.580175E1,0E0,0E0,9.345001E0,0E0,0E0,2.1476212E0,4.7213135E0,4.504489E0,2.222859E3,4.760971E-1,0E0,0E0,2.6660645E1,1.9422474E0,0E0,0E0,7.266864E2,4.4453122E2,0E0,4.407776E0,2.5285156E1,2.6936823E1,2.161568E2,6.5380554E1,0E0,0E0,0E0,0E0,0E0,0E0,0E0,0E0,0E0,0E0,0E0,0E0,0E0,0E0,0E0,0E0,0E0,0E0,0E0,0E0,0E0,0E0,0E0,0E0,0E0,0E0,0E0,0E0,0E0,0E0,0E0,0E0,0E0,0E0,0E0,0E0],"parents":[2147483647,0,0,1,1,2,2,3,3,4,4,5,5,6,6,7,7,8,8,9,9,10,10,11,11,12,12,13,13,14,14,15,15,16,16,17,17,19,19,20,20,21,21,22,22,23,23,25,25,26,26,27,27,28,28,29,29,30,30,31,31,33,33,34,34,37,37,40,40,41,41,42,42,43,43,44,44,47,47,48,48,51,51,52,52,54,54,55,55,56,56,57,57,58,58],"right_children":[2,4,6,8,10,12,14,16,18,20,22,24,26,28,30,32,34,36,-1,38,40,42,44,46,-1,48,50,52,54,56,58,60,-1,62,64,-1,-1,66,-1,-1,68,70,72,74,76,-1,-1,78,80,-1,-1,82,84,-1,86,88,90,92,94,-1,-1,-1,-1,-1,-1,-1,-1,-1,-1,-1,-1,-1,-1,-1,-1,-1,-1,-1,-1,-1,-1,-1,-1,-1,-1,-1,-1,-1,-1,-1,-1,-1,-1,-1,-1],"split_conditions":[2.51E2,2.35E2,2.52E2,2.37E2,2.37E2,4.8E1,2.51E2,2.27E2,1.964E3,8.810572E3,2.37E2,1.72876E5,3.408217E1,1.3003516E3,2.896E4,1.0333333E1,2.29E2,8.8E1,-3.199581E-1,2.35E2,3E0,1.0103181E8,2.42E2,6.25E4,2.804159E-1,1.964E3,6.25E4,8.474576E3,2.27E2,5.792E3,2.92E4,8.8E1,-3.0082822E-1,8.8E1,5.965953E0,-4.0262592E-1,-2.9510164E-1,4E1,-1.4911088E-1,2.6865807E0,4.94E2,2.2E1,2E0,9E0,1.6384E4,-3.0938578E-1,-2.5388096E-2,5.19E2,3.2863352E0,1.3465818E0,4.382613E-1,9.78216E5,2E0,-3.063084E-1,8.8E1,5.3E1,2E0,4.057417E6,1.073E3,1.1639085E-1,-3.011393E-1,1.8685751E0,-2.7839586E-1,-3.3440375E-1,1.1709079E-2,5.55633E-1,3.4727985E-1,2.470835E-1,1.1284456E0,-6.33819E-1,-3.0085093E-1,4.784819E-1,-1.6187084E-1,-2.7660534E-1,7.000404E0,-2.97992E-1,-7.2459154E-2,2.8480798E-1,4.0239727E-1,-4.6932933E-1,-1.988131E-2,-1.8584913E-1,4.5308925E-2,1.4299783E-1,-3.0853802E-1,3.023165E-1,-1.6666733E-1,2.9409808E-1,-2.916573E-1,-2.1600193E-1,6.420915E-1,9.873192E-1,1.3934232E-1,-7.216689E-4,-3.137238E-1],"split_indices":[0,2,0,0,2,9,2,0,13,1,0,13,1,4,2,6,0,5,0,0,4,3,0,1,0,13,1,1,2,9,2,5,0,5,4,0,0,9,0,0,7,5,0,6,2,0,0,13,4,0,0,3,10,0,5,5,13,3,0,0,0,0,0,0,0,0,0,0,0,0,0,0,0,0,0,0,0,0,0,0,0,0,0,0,0,0,0,0,0,0,0,0,0,0,0],"split_type":[0,0,0,0,0,0,0,0,0,0,0,0,0,0,0,0,0,0,0,0,0,0,0,0,0,0,0,0,0,0,0,0,0,0,0,0,0,0,0,0,0,0,0,0,0,0,0,0,0,0,0,0,0,0,0,0,0,0,0,0,0,0,0,0,0,0,0,0,0,0,0,0,0,0,0,0,0,0,0,0,0,0,0,0,0,0,0,0,0,0,0,0,0,0,0],"sum_hessian":[1.4726807E4,4.2584365E3,1.046837E4,3.5294602E3,7.289766E2,1.0273418E3,9.441028E3,3.0080752E3,5.2138495E2,2.9319937E2,4.3577722E2,3.1514553E1,9.958272E2,7.3592744E3,2.0817537E3,2.8006067E3,2.0746843E2,3.4698752E2,1.7439745E2,2.8920776E2,3.9916196E0,3.797002E2,5.6077023E1,3.0452435E1,1.0621184E0,9.710981E2,2.4729107E1,6.966003E3,3.9327148E2,1.3308962E3,7.508575E2,2.2709142E2,2.5735154E3,1.7385399E1,1.9008304E2,3.2095013E2,2.6037378E1,2.870141E2,2.193647E0,1.0989126E0,2.892707E0,3.7744528E2,2.2549171E0,1.4127806E1,4.194922E1,2.9401714E1,1.0507197E0,9.5783057E2,1.3267507E1,1.3300192E1,1.1428916E1,5.1480454E3,1.8179576E3,5.245647E0,3.8802585E2,1.3192458E3,1.1650353E1,3.171358E2,4.3372165E2,2.0981634E1,2.0610979E2,6.1545405E0,1.1230859E1,1.2809554E2,6.1987503E1,2.3536163E1,2.6347794E2,1.0340238E0,1.8586833E0,3.732986E0,3.737123E2,1.0933112E0,1.1616058E0,8.309919E0,5.817887E0,4.0321293E1,1.6279261E0,7.174307E2,2.4039987E2,1.2244608E1,1.022899E0,3.1452874E3,2.0027582E3,1.5951763E3,2.2278131E2,3.8680026E2,1.2255843E0,5.9115925E0,1.3133344E3,6.93366E0,4.716694E0,2.8928207E1,2.8820758E2,7.198545E1,3.617362E2],"tree_param":{"num_deleted":"0","num_feature":"14","num_nodes":"95","size_leaf_vector":"1"}},{"base_weights":[-3.141612E-1,-9.4989187E-1,-8.854414E-2,-7.7925265E-1,-1.8247415E0,1.5622233E-1,-4.7998658E-1,-8.582017E-1,1.0594001E0,-1.1169324E0,-4.7989798E0,9.316877E-1,2.6822366E-2,-9.273639E-1,2.901472E-2,-4.1567293E-1,-2.9977244E-1,1.1323544E0,-2.4098149E-1,-1.1585288E0,-3.7815365E-1,-5.312095E0,-7.732767E-1,-8.62948E-1,9.7504324E-1,8.811251E-2,-3.2604483E-1,-3.0111676E-1,-7.17682E-1,3.3914503E-1,-9.0380037E-1,5.360357E-1,-3.0049154E-1,4.8385498E-1,2.9834557E-1,-3.6361417E-1,-3.123513E-1,1.1133381E0,-2.965611E-1,-2.3072696E-1,-5.472009E0,-2.7605516E-1,1.0222421E-1,-3.0403024E-1,2.9546192E-1,1.0044606E0,-3.8641608E-1,-3.816401E-1,2.713396E-1,-9.6431386E-1,-3.5850772E-1,6.727999E-2,9.770074E-1,1.9405077E0,-9.3927884E-1,-2.0250833E-1,4.0745774E-1,-2.089597E-1,5.64497E-1,-4.5542474E0,-1.5506899E0,2.9193437E-1,5.236081E-1,-3.094702E-1,2.82857E-1,2.5396225E-1,-5.4962624E-2,-3.0727932E-1,-1.3828856E-1,-2.9522595E-1,6.801631E-1,-2.78694E-1,3.4558803E-2,-1.313145E-1,3.1339556E-1,-1.3988192E-1,-2.9017216E-1],"categories":[],"categories_nodes":[],"categories_segments":[],"categories_sizes":[],"default_left":[0,0,0,0,0,0,0,0,0,0,0,0,0,0,0,0,0,0,0,0,0,0,0,0,0,0,0,0,0,0,0,0,0,0,0,0,0,0,0,0,0,0,0,0,0,0,0,0,0,0,0,0,0,0,0,0,0,0,0,0,0,0,0,0,0,0,0,0,0,0,0,0,0,0,0,0,0],"id":14,"left_children":[1,3,5,7,9,11,13,15,17,19,21,23,25,27,29,31,-1,33,-1,35,37,39,41,43,45,47,-1,-1,49,51,53,55,-1,-1,-1,-1,-1,57,-1,-1,59,-1,-1,-1,-1,61,-1,63,65,67,69,71,73,-1,75,-1,-1,-1,-1,-1,-1,-1,-1,-1,-1,-1,-1,-1,-1,-1,-1,-1,-1,-1,-1,-1,-1],"loss_changes":[1.8147068E3,4.933142E2,8.949189E2,4.0371472E2,1.13178E3,5.766741E2,8.183072E2,1.6568213E2,1.6495132E1,1.3010376E1,2.0975488E2,6.478656E1,3.3634143E2,2.9901001E1,4.868746E2,3.6017087E2,0E0,5.735031E0,0E0,1.3371582E0,2.3688406E1,6.2380127E1,2.4206176E0,6.5363045E0,5.4747803E1,4.0207895E2,0E0,0E0,4.5191376E1,2.1895125E2,1.1590982E2,2.4625412E2,0E0,0E0,0E0,0E0,0E0,1.198389E1,0E0,0E0,1.8155518E2,0E0,0E0,0E0,0E0,1.6722656E1,0E0,1.1294268E3,8.787438E2,8.707001E0,3.4860663E2,4.2431614E1,3.6569824E1,0E0,5.087982E0,0E0,0E0,0E0,0E0,0E0,0E0,0E0,0E0,0E0,0E0,0E0,0E0,0E0,0E0,0E0,0E0,0E0,0E0,0E0,0E0,0E0,0E0],"parents":[2147483647,0,0,1,1,2,2,3,3,4,4,5,5,6,6,7,7,8,8,9,9,10,10,11,11,12,12,13,13,14,14,15,15,17,17,19,19,20,20,21,21,22,22,23,23,24,24,25,25,28,28,29,29,30,30,31,31,37,37,40,40,45,45,47,47,48,48,49,49,50,50,51,51,52,52,54,54],"right_children":[2,4,6,8,10,12,14,16,18,20,22,24,26,28,30,32,-1,34,-1,36,38,40,42,44,46,48,-1,-1,50,52,54,56,-1,-1,-1,-1,-1,58,-1,-1,60,-1,-1,-1,-1,62,-1,64,66,68,70,72,74,-1,76,-1,-1,-1,-1,-1,-1,-1,-1,-1,-1,-1,-1,-1,-1,-1,-1,-1,-1,-1,-1,-1,-1],"split_conditions":[2.51E2,2.37E2,3.89E2,4.868889E2,9E0,2.52E2,2E0,2E0,2E0,8.810572E3,2.42E2,4.8E1,3.0016E4,1.6739483E1,4E0,8.8E1,-2.9977244E-1,1.3572285E3,-2.4098149E-1,1.964E3,2.37E2,2.35E2,2.3809523E4,1.00077E5,1.964E3,2.74E2,-3.2604483E-1,-3.0111676E-1,5.5609E4,2.92E4,4.5E0,3E0,-3.0049154E-1,4.8385498E-1,2.9834557E-1,-3.6361417E-1,-3.123513E-1,2.35E2,-2.965611E-1,-2.3072696E-1,2.4E2,-2.7605516E-1,1.0222421E-1,-3.0403024E-1,2.9546192E-1,3.408217E1,-3.8641608E-1,1.8E1,1.0189952E-1,1.04E2,8.08E3,4.65E2,4.65E2,1.9405077E0,1.5E1,-2.0250833E-1,4.0745774E-1,-2.089597E-1,5.64497E-1,-4.5542474E0,-1.5506899E0,2.9193437E-1,5.236081E-1,-3.094702E-1,2.82857E-1,2.5396225E-1,-5.4962624E-2,-3.0727932E-1,-1.3828856E-1,-2.9522595E-1,6.801631E-1,-2.78694E-1,3.4558803E-2,-1.313145E-1,3.1339556E-1,-1.3988192E-1,-2.9017216E-1],"split_indices":[0,0,5,12,6,0,8,8,8,1,0,9,0,1,11,5,0,12,0,13,2,2,1,13,13,0,0,0,3,0,6,6,0,0,0,0,0,2,0,0,2,0,0,0,0,1,0,11,1,9,5,5,5,0,3,0,0,0,0,0,0,0,0,0,0,0,0,0,0,0,0,0,0,0,0,0,0],"split_type":[0,0,0,0,0,0,0,0,0,0,0,0,0,0,0,0,0,0,0,0,0,0,0,0,0,0,0,0,0,0,0,0,0,0,0,0,0,0,0,0,0,0,0,0,0,0,0,0,0,0,0,0,0,0,0,0,0,0,0,0,0,0,0,0,0,0,0,0,0,0,0,0,0,0,0,0,0],"sum_hessian":[1.265165E4,3.3130686E3,9.338582E3,2.773909E3,5.391596E2,5.746151E3,3.5924307E3,2.6602163E3,1.13692535E2,4.366267E2,1.02532875E2,8.208397E2,4.925311E3,1.9115166E3,1.6809141E3,6.4388855E2,2.0163279E3,1.0978474E2,3.9077992E0,4.1281534E2,2.3811386E1,9.065806E1,1.1874813E1,1.8916496E1,8.019233E2,4.6692554E3,2.5605597E2,1.3984601E3,5.130565E2,1.2619828E3,4.189313E2,2.4540076E2,3.9848782E2,2.209207E1,8.769267E1,2.7711517E2,1.3570013E2,6.6755238E0,1.7135862E1,3.280192E0,8.737787E1,1.0645043E1,1.2297693E0,1.7909504E1,1.0069926E0,7.9218207E2,9.74119E0,1.3098961E3,3.359359E3,3.031854E2,2.0987112E2,8.856241E2,3.7635873E2,1.1380366E0,4.1779327E2,9.930307E1,1.4609767E2,2.0171971E0,4.6583266E0,1.1587704E0,8.621909E1,7.6224634E2,2.9935743E1,8.78862E2,4.310342E2,1.4824954E3,1.8768635E3,2.699936E2,3.3191795E1,1.6999493E2,3.987618E1,3.9796463E1,8.458276E2,1.6924648E1,3.594341E2,2.4305769E1,3.9348752E2],"tree_param":{"num_deleted":"0","num_feature":"14","num_nodes":"77","size_leaf_vector":"1"}},{"base_weights":[-2.683336E-1,-8.569416E-1,-7.833827E-2,-9.218251E-1,1.0100384E0,1.2718962E-1,-4.4196162E-1,-6.7153174E-1,-1.0446386E0,1.0935501E0,-2.1953571E-1,8.511183E-1,2.1202067E-2,-9.1536415E-1,2.1208718E-2,-9.334432E-1,-3.922238E-2,-1.0037491E0,-1.549997E0,4.2200574E-1,2.960186E-1,-7.985787E-1,8.908285E-1,-6.0094696E-2,8.077288E-1,-2.9996282E-1,-6.9300544E-1,2.7344483E-1,-8.739281E-1,-1.0523646E0,-6.272411E-1,1.1541494E0,-3.0251062E-1,-1.0320995E0,-4.5412812E-1,-2.969256E-1,-2.167103E0,-2.9514727E-1,2.9138517E-1,9.1870105E-1,-3.373786E-1,3.089682E-2,-9.747202E-1,1.0781661E0,-7.438232E-1,-3.0264205E-1,-4.2314816E-1,4.792933E-2,9.486555E-1,2.184512E0,-9.1644627E-1,-3.3122027E-1,-2.5479907E-1,9.93949E-2,-2.9190013E-1,3.301158E-1,9.8035014E-1,-2.9902077E-1,-4.7822788E-1,-3.6536533E-1,-2.93048E-2,-5.5014795E-1,-7.75186E-1,2.2489886E-1,3.2638133E-1,-3.0250672E-2,1.8247907E-1,-7.168852E-2,-2.9398075E-1,-3.5439122E-1,3.3668926E-1,4.5698035E-1,-2.8158367E-1,-2.6313916E-1,2.654817E-1,-3.5376344E-2,1.0802375E-1,3.0251545E-1,-3.3462593E-1,2.8618348E-1,8.016885E-1,-1.1627914E-1,-2.8582087E-1],"categories":[],"categories_nodes":[],"categories_segments":[],"categories_sizes":[],"default_left":[0,0,0,0,0,0,0,0,0,0,0,0,0,0,0,0,0,0,0,0,0,0,0,0,0,0,0,0,0,0,0,0,0,0,0,0,0,0,0,0,0,0,0,0,0,0,0,0,0,0,0,0,0,0,0,0,0,0,0,0,0,0,0,0,0,0,0,0,0,0,0,0,0,0,0,0,0,0,0,0,0,0,0],"id":15,"left_children":[1,3,5,7,9,11,13,15,17,19,-1,21,23,25,27,29,31,33,35,-1,-1,37,39,41,43,-1,45,47,49,51,53,55,-1,57,59,-1,61,-1,-1,63,-1,65,67,69,71,-1,73,75,77,79,81,-1,-1,-1,-1,-1,-1,-1,-1,-1,-1,-1,-1,-1,-1,-1,-1,-1,-1,-1,-1,-1,-1,-1,-1,-1,-1,-1,-1,-1,-1,-1,-1],"loss_changes":[1.1916077E3,3.1590344E2,6.021725E2,7.655737E1,1.3572693E1,3.949829E2,6.379974E2,1.3743604E2,3.324695E1,1.4280853E0,0E0,4.377957E1,2.8725546E2,2.6347412E1,3.3252228E2,2.071228E1,2.8356577E2,2.3854736E1,4.0807495E1,0E0,0E0,6.1949244E0,3.7122894E1,3.3890054E2,1.7738724E2,0E0,3.3622345E1,1.7489906E2,4.4104538E1,3.4845276E0,5.5558136E1,8.892517E0,0E0,2.7897339E1,2.1212257E1,0E0,3.3577576E0,0E0,0E0,1.732837E1,0E0,2.8180762E2,1.1798096E0,3.7101654E1,2.9276245E1,0E0,1.2973843E2,4.4684265E1,3.6581665E1,2.928505E-1,5.7727966E0,0E0,0E0,0E0,0E0,0E0,0E0,0E0,0E0,0E0,0E0,0E0,0E0,0E0,0E0,0E0,0E0,0E0,0E0,0E0,0E0,0E0,0E0,0E0,0E0,0E0,0E0,0E0,0E0,0E0,0E0,0E0,0E0],"parents":[2147483647,0,0,1,1,2,2,3,3,4,4,5,5,6,6,7,7,8,8,9,9,11,11,12,12,13,13,14,14,15,15,16,16,17,17,18,18,21,21,22,22,23,23,24,24,26,26,27,27,28,28,29,29,30,30,31,31,33,33,34,34,36,36,39,39,41,41,42,42,43,43,44,44,46,46,47,47,48,48,49,49,50,50],"right_children":[2,4,6,8,10,12,14,16,18,20,-1,22,24,26,28,30,32,34,36,-1,-1,38,40,42,44,-1,46,48,50,52,54,56,-1,58,60,-1,62,-1,-1,64,-1,66,68,70,72,-1,74,76,78,80,82,-1,-1,-1,-1,-1,-1,-1,-1,-1,-1,-1,-1,-1,-1,-1,-1,-1,-1,-1,-1,-1,-1,-1,-1,-1,-1,-1,-1,-1,-1,-1,-1],"split_conditions":[2.51E2,6.518333E2,3.89E2,2E0,8.8E1,2.52E2,2E0,2.1908903E0,5.3868E4,1.3572285E3,-2.1953571E-1,4.8E1,6.907143E2,1.6739483E1,4E0,1.689E3,8.8E1,2E4,2.37E2,4.2200574E-1,2.960186E-1,1.44986E5,1.964E3,9.4E1,9E0,-2.9996282E-1,8.8E1,2.92E4,6E0,8.810572E3,2.29E2,1.964E3,-3.0251062E-1,2.37E2,2.56E2,-2.969256E-1,2.56E2,-2.9514727E-1,2.9138517E-1,9.37E2,-3.373786E-1,1.8E1,1.3716E4,2.27E2,3.614158E2,-3.0264205E-1,8.08E3,5.8E1,3.0016E4,1.6393442E3,1.5E1,-3.3122027E-1,-2.5479907E-1,9.93949E-2,-2.9190013E-1,3.301158E-1,9.8035014E-1,-2.9902077E-1,-4.7822788E-1,-3.6536533E-1,-2.93048E-2,-5.5014795E-1,-7.75186E-1,2.2489886E-1,3.2638133E-1,-3.0250672E-2,1.8247907E-1,-7.168852E-2,-2.9398075E-1,-3.5439122E-1,3.3668926E-1,4.5698035E-1,-2.8158367E-1,-2.6313916E-1,2.654817E-1,-3.5376344E-2,1.0802375E-1,3.0251545E-1,-3.3462593E-1,2.8618348E-1,8.016885E-1,-1.1627914E-1,-2.8582087E-1],"split_indices":[0,12,5,8,5,0,8,4,5,12,0,9,12,1,11,3,5,1,0,0,0,3,13,12,10,0,9,0,7,1,0,13,0,0,2,0,2,0,0,3,0,11,3,2,4,0,5,13,0,1,3,0,0,0,0,0,0,0,0,0,0,0,0,0,0,0,0,0,0,0,0,0,0,0,0,0,0,0,0,0,0,0,0],"split_type":[0,0,0,0,0,0,0,0,0,0,0,0,0,0,0,0,0,0,0,0,0,0,0,0,0,0,0,0,0,0,0,0,0,0,0,0,0,0,0,0,0,0,0,0,0,0,0,0,0,0,0,0,0,0,0,0,0,0,0,0,0,0,0,0,0,0,0,0,0,0,0,0,0,0,0,0,0,0,0,0,0,0,0],"sum_hessian":[1.0654863E4,2.5991506E3,8.0557124E3,2.512345E3,8.680573E1,5.1471055E3,2.908607E3,8.291034E2,1.6832416E3,8.31894E1,3.6163318E0,6.5643243E2,4.4906733E3,1.4379321E3,1.4706747E3,5.859276E2,2.4317577E2,1.560005E3,1.2323654E2,1.8065048E1,6.512435E1,1.4980502E1,6.4145197E2,4.0708289E3,4.198443E2,1.0393933E3,3.9853873E2,1.1479065E3,3.2276825E2,4.2026874E2,1.6565887E2,1.0889523E2,1.3428055E2,1.4826499E3,7.735521E1,6.595898E1,5.7277565E1,1.3963151E1,1.0173515E0,6.3323865E2,8.21328E0,3.7033657E3,3.6746313E2,3.5778674E2,6.2057545E1,1.8237521E2,2.1616351E2,8.613071E2,2.8659937E2,3.7348187E0,3.1903345E2,3.3143146E2,8.883728E1,4.392532E1,1.2173355E2,1.0767697E2,1.2182621E0,1.3974862E3,8.5163666E1,2.3845234E1,5.350997E1,3.4829895E1,2.244767E1,3.195215E2,3.1371716E2,3.0160476E3,6.873181E2,2.9160466E0,3.6454706E2,6.3606696E0,3.514261E2,4.3705015E0,5.7687046E1,1.6071538E2,5.5448135E1,5.6286804E2,2.984391E2,2.790362E2,7.5631657E0,1.8992109E0,1.8356078E0,2.123651E1,2.9779694E2],"tree_param":{"num_deleted":"0","num_feature":"14","num_nodes":"83","size_leaf_vector":"1"}},{"base_weights":[-2.2987546E-1,-8.161321E-1,-6.6294566E-2,-8.7784934E-1,9.7434187E-1,2.6582575E-1,-2.3784061E-1,-6.319336E-1,-1.000971E0,3.184319E-1,-1.9662672E-1,4.9016535E-1,-1.0021194E0,-6.186843E-1,-8.495197E-2,-8.6812806E-1,-3.8638182E-2,-9.723918E-1,-1.3132795E0,1.7567405E-1,1.1424503E0,-1.2021573E0,1.1321906E0,-7.1671146E-1,7.9665816E-1,-2.835591E-1,2.1607187E-1,-9.8181367E-1,-4.657873E-1,1.084315E0,-3.0128807E-1,-1.0071923E0,-2.7505746E-1,-2.950586E-1,-4.747679E-1,4.5140156E-1,-2.0225952E0,1.0967418E0,2.8971002E0,-9.5660114E-1,-1.2699624E0,1.333019E0,-2.2127926E-1,-9.3850696E-1,-4.6377236E-1,1.0458448E0,-2.913201E-1,-3.743584E-1,1.0294862E0,4.2342705E-1,-3.0852532E-1,-2.4592394E-1,-3.2299244E-1,5.573045E-1,-2.804272E-1,3.3777684E-1,-2.3934607E-1,-3.053758E-1,2.5377713E-2,-3.6824813E-1,6.318659E-2,-3.41308E-2,2.2240524E-1,-6.145386E-1,-1.5451062E-1,2.861503E-1,3.7768695E-1,1.9104797E0,3.097496E-1,-2.945139E-1,4.681339E-3,-3.8963652E-1,-2.0372127E-1,-8.420654E-2,4.318384E-1,-1.09780066E-1,-2.982644E-1,-7.200089E-3,-2.3869257E-1,2.880922E-1,9.655254E-1,-3.059135E-1,-1.7506504E-2,4.229733E-1,-4.6499655E-1,2.271931E-1,-9.766052E-3],"categories":[],"categories_nodes":[],"categories_segments":[],"categories_sizes":[],"default_left":[0,0,0,0,0,0,0,0,0,0,0,0,0,0,0,0,0,0,0,0,0,0,0,0,0,0,0,0,0,0,0,0,0,0,0,0,0,0,0,0,0,0,0,0,0,0,0,0,0,0,0,0,0,0,0,0,0,0,0,0,0,0,0,0,0,0,0,0,0,0,0,0,0,0,0,0,0,0,0,0,0,0,0,0,0,0,0],"id":16,"left_children":[1,3,5,7,9,11,13,15,17,-1,-1,19,21,23,25,27,29,31,33,35,37,39,41,43,45,47,49,51,53,55,-1,57,59,-1,-1,61,63,65,67,69,71,73,-1,75,77,79,-1,81,83,85,-1,-1,-1,-1,-1,-1,-1,-1,-1,-1,-1,-1,-1,-1,-1,-1,-1,-1,-1,-1,-1,-1,-1,-1,-1,-1,-1,-1,-1,-1,-1,-1,-1,-1,-1,-1,-1],"loss_changes":[8.840901E2,2.230957E2,4.108013E2,5.8247803E1,1.02756195E1,6.990719E2,2.767764E2,9.126529E1,1.0274048E1,0E0,0E0,4.279973E2,1.5912946E2,1.8950006E2,2.0294955E2,2.08555E1,2.0339558E2,2.8589844E1,7.8245087E0,8.5526196E2,5.126703E1,4.418701E0,1.3067501E1,7.103992E1,4.007783E1,2.4420387E2,3.4868903E2,4.6868896E0,1.1566496E2,7.6908035E0,0E0,1.3350708E1,2.7049702E1,0E0,0E0,2.0545634E2,5.077942E0,1.4173523E1,1.010309E2,1.9016571E0,3.5820923E0,5.456772E0,0E0,2.1257019E1,8.714212E1,1.14424515E1,0E0,3.901707E2,1.3224503E2,1.7624959E2,0E0,0E0,0E0,0E0,0E0,0E0,0E0,0E0,0E0,0E0,0E0,0E0,0E0,0E0,0E0,0E0,0E0,0E0,0E0,0E0,0E0,0E0,0E0,0E0,0E0,0E0,0E0,0E0,0E0,0E0,0E0,0E0,0E0,0E0,0E0,0E0,0E0],"parents":[2147483647,0,0,1,1,2,2,3,3,4,4,5,5,6,6,7,7,8,8,11,11,12,12,13,13,14,14,15,15,16,16,17,17,18,18,19,19,20,20,21,21,22,22,23,23,24,24,25,25,26,26,27,27,28,28,29,29,31,31,32,32,35,35,36,36,37,37,38,38,39,39,40,40,41,41,43,43,44,44,45,45,47,47,48,48,49,49],"right_children":[2,4,6,8,10,12,14,16,18,-1,-1,20,22,24,26,28,30,32,34,36,38,40,42,44,46,48,50,52,54,56,-1,58,60,-1,-1,62,64,66,68,70,72,74,-1,76,78,80,-1,82,84,86,-1,-1,-1,-1,-1,-1,-1,-1,-1,-1,-1,-1,-1,-1,-1,-1,-1,-1,-1,-1,-1,-1,-1,-1,-1,-1,-1,-1,-1,-1,-1,-1,-1,-1,-1,-1,-1],"split_conditions":[2.51E2,6.518333E2,2.85E2,2E0,8.8E1,1.964E3,1.1E1,2.1908903E0,5.3868E4,3.184319E-1,-1.9662672E-1,2.74E2,3.011641E6,1.4979742E3,1.6567E4,1.964E3,8.8E1,5.144E4,2.37E2,2.64E2,4.6159332E2,6.4E1,8.8E1,2.92E4,9.101E3,3.011641E6,3.0016E4,6.4E1,2.29E2,5E0,-3.0128807E-1,1.6384E4,2.56E2,-2.950586E-1,-4.747679E-1,6.4E1,2.194266E-2,9.37E2,5.319149E3,9.96416E5,2.1908903E0,2.56E2,-2.2127926E-1,3.2E1,2.0108994E2,8.8E1,-2.913201E-1,2.7071602E0,4.38E2,2.37E2,-3.0852532E-1,-2.4592394E-1,-3.2299244E-1,5.573045E-1,-2.804272E-1,3.3777684E-1,-2.3934607E-1,-3.053758E-1,2.5377713E-2,-3.6824813E-1,6.318659E-2,-3.41308E-2,2.2240524E-1,-6.145386E-1,-1.5451062E-1,2.861503E-1,3.7768695E-1,1.9104797E0,3.097496E-1,-2.945139E-1,4.681339E-3,-3.8963652E-1,-2.0372127E-1,-8.420654E-2,4.318384E-1,-1.09780066E-1,-2.982644E-1,-7.200089E-3,-2.3869257E-1,2.880922E-1,9.655254E-1,-3.059135E-1,-1.7506504E-2,4.229733E-1,-4.6499655E-1,2.271931E-1,-9.766052E-3],"split_indices":[0,12,0,8,5,13,13,4,5,0,0,0,13,4,0,13,5,5,0,0,1,9,5,0,5,13,0,9,0,10,0,2,2,0,0,9,1,3,1,13,4,0,0,9,4,5,0,1,0,2,0,0,0,0,0,0,0,0,0,0,0,0,0,0,0,0,0,0,0,0,0,0,0,0,0,0,0,0,0,0,0,0,0,0,0,0,0],"split_type":[0,0,0,0,0,0,0,0,0,0,0,0,0,0,0,0,0,0,0,0,0,0,0,0,0,0,0,0,0,0,0,0,0,0,0,0,0,0,0,0,0,0,0,0,0,0,0,0,0,0,0,0,0,0,0,0,0,0,0,0,0,0,0,0,0,0,0,0,0,0,0,0,0,0,0,0,0,0,0,0,0,0,0,0,0,0,0],"sum_hessian":[9.2184E3,2.0101709E3,7.2082295E3,1.9436824E3,6.648859E1,2.454897E3,4.7533325E3,6.505152E2,1.2931671E3,6.344659E1,3.0419931E0,2.0863662E3,3.6853073E2,1.3607285E3,3.3926042E3,4.649519E2,1.8556332E2,1.1885199E3,1.0464728E2,1.4085299E3,6.7783624E2,3.373495E2,3.118126E1,1.2730502E3,8.767838E1,2.044053E3,1.3485513E3,3.6139554E2,1.0355635E2,8.573726E1,9.9826065E1,1.1316029E3,5.6916985E1,4.9133083E1,5.551419E1,1.252255E3,1.5627489E2,6.622107E2,1.5625536E1,7.626486E1,2.6108463E2,2.8416231E1,2.7650278E0,6.7683844E2,5.9621173E2,7.720376E1,1.0474629E1,1.9125143E3,1.3153867E2,1.1565142E3,1.9203706E2,1.369623E2,2.2443326E2,1.6894234E1,8.666212E1,8.427598E1,1.4612781E0,1.1206598E3,1.09431095E1,1.870614E1,3.8210842E1,4.2481348E2,8.274415E2,1.5328603E2,2.9888642E0,3.5571442E2,3.064963E2,4.616344E0,1.1009192E1,7.433502E1,1.9298377E0,2.477981E2,1.3286524E1,1.6570902E0,2.6759142E1,6.0684277E1,6.161541E2,2.5688138E2,3.3933035E2,7.566666E1,1.5370982E0,6.2792236E2,1.2845919E3,1.15027626E2,1.6511036E1,6.6726263E2,4.8925153E2],"tree_param":{"num_deleted":"0","num_feature":"14","num_nodes":"87","size_leaf_vector":"1"}},{"base_weights":[-1.9968674E-1,-7.8171384E-1,-5.7995666E-2,-8.403778E-1,9.44564E-1,-9.771529E-3,-3.1078443E-1,-5.956864E-1,-9.665432E-1,-5.198554E-1,3.1318215E-1,1.3794841E-1,-3.0016387E-1,-8.5241276E-1,-1.3195935E-1,-1.0121452E0,-5.9555626E-1,1.2289788E-2,-2.2054175E-1,4.8779657E-1,7.5093433E-3,-8.470609E-1,4.1628882E-2,-9.637505E-1,-5.960917E-1,1.323602E0,-3.0004585E-1,-9.949918E-1,-1.3073909E0,-3.0248582E-1,-1.2334692E0,-9.7719973E-1,6.651821E-1,-8.652605E-2,8.761016E-1,-2.9787678E-1,-4.7330773E-1,2.1150337E-1,-8.0690914E-1,-2.2353955E-1,-3.1758264E-1,2.4015638E-1,-2.8199303E-1,3.0045307E-1,2.0993552E0,-3.033049E-1,-1.6008636E-1,-2.811234E-1,-4.332582E-1,-2.833692E-1,1.2735203E-2,-2.778079E-1,-4.0726745E-1,-3.238979E-1,-6.0311362E-2,2.9601866E-1,2.7213799E-2,-2.9369596E-1,1.517746E-2,-1.9984852E-1,3.4802422E-1,2.306915E-2,-3.0181283E-1,1.9345293E-2,2.7817434E-1,4.4154447E-1,-2.593998E-1],"categories":[],"categories_nodes":[],"categories_segments":[],"categories_sizes":[],"default_left":[0,0,0,0,0,0,0,0,0,0,0,0,0,0,0,0,0,0,0,0,0,0,0,0,0,0,0,0,0,0,0,0,0,0,0,0,0,0,0,0,0,0,0,0,0,0,0,0,0,0,0,0,0,0,0,0,0,0,0,0,0,0,0,0,0,0,0],"id":17,"left_children":[1,3,5,7,9,11,-1,13,15,17,-1,19,21,23,25,27,29,-1,-1,31,33,35,37,39,41,43,-1,45,47,49,51,53,55,57,59,-1,61,63,65,-1,-1,-1,-1,-1,-1,-1,-1,-1,-1,-1,-1,-1,-1,-1,-1,-1,-1,-1,-1,-1,-1,-1,-1,-1,-1,-1,-1],"loss_changes":[6.54609E2,1.5817737E2,3.0112103E2,4.5841064E1,8.044373E0,2.6111655E2,0E0,6.109305E1,1.6153076E1,5.062169E-1,0E0,1.8411676E2,3.836806E2,8.863953E0,2.3432874E2,3.1588745E0,2.035025E1,0E0,0E0,2.8540408E2,2.4020815E2,4.256549E1,1.8236884E2,3.959198E0,5.0113117E1,1.1968013E2,0E0,5.644348E0,9.348221E-1,1.715536E1,6.1698914E-2,9.226799E0,1.8056665E2,3.2478674E2,1.2659494E2,0E0,6.558986E1,1.10845024E2,2.9048737E1,0E0,0E0,0E0,0E0,0E0,0E0,0E0,0E0,0E0,0E0,0E0,0E0,0E0,0E0,0E0,0E0,0E0,0E0,0E0,0E0,0E0,0E0,0E0,0E0,0E0,0E0,0E0,0E0],"parents":[2147483647,0,0,1,1,2,2,3,3,4,4,5,5,7,7,8,8,9,9,11,11,12,12,13,13,14,14,15,15,16,16,19,19,20,20,21,21,22,22,23,23,24,24,25,25,27,27,28,28,29,29,30,30,31,31,32,32,33,33,34,34,36,36,37,37,38,38],"right_children":[2,4,6,8,10,12,-1,14,16,18,-1,20,22,24,26,28,30,-1,-1,32,34,36,38,40,42,44,-1,46,48,50,52,54,56,58,60,-1,62,64,66,-1,-1,-1,-1,-1,-1,-1,-1,-1,-1,-1,-1,-1,-1,-1,-1,-1,-1,-1,-1,-1,-1,-1,-1,-1,-1,-1,-1],"split_conditions":[2.51E2,6.518333E2,3.0016E4,2E0,8.5306836E2,3.89E2,-3.1078443E-1,3E0,1.8518518E4,6.341901E2,3.1318215E-1,5E0,2E0,9.73E2,8.8E1,2.57E2,5.4255E4,1.2289788E-2,-2.2054175E-1,5.2E1,8.620689E3,1.6739483E1,4E0,4E1,2.29E2,6.32E2,-3.0004585E-1,2.56E2,2.37E2,2.37E2,2.37E2,7.75E0,2.85E2,4.4E1,2.5E1,-2.9787678E-1,9.101E3,2.92E4,6E0,-2.2353955E-1,-3.1758264E-1,2.4015638E-1,-2.8199303E-1,3.0045307E-1,2.0993552E0,-3.033049E-1,-1.6008636E-1,-2.811234E-1,-4.332582E-1,-2.833692E-1,1.2735203E-2,-2.778079E-1,-4.0726745E-1,-3.238979E-1,-6.0311362E-2,2.9601866E-1,2.7213799E-2,-2.9369596E-1,1.517746E-2,-1.9984852E-1,3.4802422E-1,2.306915E-2,-3.0181283E-1,1.9345293E-2,2.7817434E-1,4.4154447E-1,-2.593998E-1],"split_indices":[0,12,0,8,4,5,0,6,1,4,0,13,8,13,5,2,5,0,0,9,1,1,11,9,0,13,0,2,0,0,0,6,0,9,13,0,5,0,7,0,0,0,0,0,0,0,0,0,0,0,0,0,0,0,0,0,0,0,0,0,0,0,0,0,0,0,0],"split_type":[0,0,0,0,0,0,0,0,0,0,0,0,0,0,0,0,0,0,0,0,0,0,0,0,0,0,0,0,0,0,0,0,0,0,0,0,0,0,0,0,0,0,0,0,0,0,0,0,0,0,0,0,0,0,0,0,0,0,0,0,0,0,0,0,0,0,0],"sum_hessian":[7.937279E3,1.5530929E3,6.384186E3,1.5025452E3,5.0547707E1,6.0851304E3,2.990559E2,5.131119E2,9.894333E2,2.943333E0,4.7604374E1,4.0337322E3,2.051398E3,3.2973004E2,1.8338182E2,8.7958563E2,1.0984766E2,1.041057E0,1.9022759E0,1.0947593E3,2.938973E3,7.884052E2,1.2629927E3,2.2795412E2,1.0177593E2,6.831852E1,1.1506329E2,8.354189E2,4.416677E1,7.62781E1,3.3569557E1,1.1775257E2,9.770067E2,2.6526885E3,2.8628455E2,5.6589954E2,2.2250563E2,1.052947E3,2.1004573E2,7.165865E1,1.5629547E2,1.9846382E1,8.192955E1,6.5762115E1,2.5564058E0,8.062254E2,2.91935E1,1.4032348E1,3.0134424E1,2.6049732E1,5.0228363E1,1.2086529E1,2.1483028E1,1.0367551E2,1.4077065E1,6.259355E2,3.5107126E2,3.524632E2,2.300225E3,4.4307724E1,2.4197682E2,1.0987902E2,1.1262662E2,8.744241E2,1.7852292E2,4.5870337E0,2.054587E2],"tree_param":{"num_deleted":"0","num_feature":"14","num_nodes":"67","size_leaf_vector":"1"}},{"base_weights":[-1.7085436E-1,-7.4643195E-1,-5.0072137E-2,-8.019941E-1,9.0622526E-1,-1.0519264E-2,-3.0662957E-1,-6.2548935E-1,-3.0085012E-1,3.043751E-1,-1.679854E-1,5.445132E-2,-5.778122E-1,-3.226649E-1,-8.5844135E-1,-3.0657794E-2,7.7756673E-1,3.401045E-1,-8.2824945E-1,-7.2801495E-1,1.2532331E0,-1.073594E0,-6.0398525E-1,6.275724E-2,-8.576757E-1,9.4022644E-1,-6.840345E-1,1.009054E0,-9.703512E-1,-9.378391E-1,5.530605E-1,9.4657764E-2,-2.6565462E-1,2.806042E-1,1.0003695E0,-2.983402E-1,-3.7514916E-1,-1.1163097E-2,-3.1687614E-1,1.08253144E-1,-3.285018E-2,-3.3076295E-1,1.581737E-1,2.6880944E-1,6.0977584E-1,-2.9642084E-1,5.1918175E-2,-1.9232781E-1,3.122516E-1,-6.8531655E-2,-2.948917E-1,-2.9084373E-1,2.2190332E-1,2.9735792E-1,-2.3174739E-1],"categories":[],"categories_nodes":[],"categories_segments":[],"categories_sizes":[],"default_left":[0,0,0,0,0,0,0,0,0,0,0,0,0,0,0,0,0,0,0,0,0,0,0,0,0,0,0,0,0,0,0,0,0,0,0,0,0,0,0,0,0,0,0,0,0,0,0,0,0,0,0,0,0,0,0],"id":18,"left_children":[1,3,5,7,9,11,-1,13,-1,-1,-1,15,17,19,21,23,25,27,29,31,33,35,37,39,41,43,45,47,49,51,53,-1,-1,-1,-1,-1,-1,-1,-1,-1,-1,-1,-1,-1,-1,-1,-1,-1,-1,-1,-1,-1,-1,-1,-1],"loss_changes":[4.8411835E2,1.11640015E2,2.2134221E2,4.0816895E1,6.884449E0,2.0397542E2,0E0,4.380667E1,0E0,0E0,0E0,3.056282E2,1.3101112E2,1.755006E2,1.8655487E1,3.4335648E2,1.2496869E2,1.0845964E2,6.8196014E1,3.6113693E1,3.412062E1,1.4127655E0,4.19566E1,2.0510425E2,1.5354623E2,2.0916718E1,1.3968555E1,4.950363E0,1.6820908E-1,2.2721924E1,2.0216623E1,0E0,0E0,0E0,0E0,0E0,0E0,0E0,0E0,0E0,0E0,0E0,0E0,0E0,0E0,0E0,0E0,0E0,0E0,0E0,0E0,0E0,0E0,0E0,0E0],"parents":[2147483647,0,0,1,1,2,2,3,3,4,4,5,5,7,7,11,11,12,12,13,13,14,14,15,15,16,16,17,17,18,18,19,19,20,20,21,21,22,22,23,23,24,24,25,25,26,26,27,27,28,28,29,29,30,30],"right_children":[2,4,6,8,10,12,-1,14,-1,-1,-1,16,18,20,22,24,26,28,30,32,34,36,38,40,42,44,46,48,50,52,54,-1,-1,-1,-1,-1,-1,-1,-1,-1,-1,-1,-1,-1,-1,-1,-1,-1,-1,-1,-1,-1,-1,-1,-1],"split_conditions":[2.51E2,6.518333E2,3.0016E4,2.3E1,8.8E1,7E0,-3.0662957E-1,8.8E1,-3.0085012E-1,3.043751E-1,-1.679854E-1,1.010159E7,5.3E1,1.2E1,2.56E2,1.964E3,4.43E2,4.861189E0,1.1848959E3,2.29E2,3.9E2,2.37E2,2.57E2,2.85E2,2.92E4,2.896E4,4.65E2,1.0227E4,1.9392246E1,5.792E3,1.2126E4,9.4657764E-2,-2.6565462E-1,2.806042E-1,1.0003695E0,-2.983402E-1,-3.7514916E-1,-1.1163097E-2,-3.1687614E-1,1.08253144E-1,-3.285018E-2,-3.3076295E-1,1.581737E-1,2.6880944E-1,6.0977584E-1,-2.9642084E-1,5.1918175E-2,-1.9232781E-1,3.122516E-1,-6.8531655E-2,-2.948917E-1,-2.9084373E-1,2.2190332E-1,2.9735792E-1,-2.3174739E-1],"split_indices":[0,12,0,8,5,10,0,5,0,0,0,3,5,11,2,13,5,1,4,0,13,0,2,0,0,2,5,0,1,9,7,0,0,0,0,0,0,0,0,0,0,0,0,0,0,0,0,0,0,0,0,0,0,0,0],"split_type":[0,0,0,0,0,0,0,0,0,0,0,0,0,0,0,0,0,0,0,0,0,0,0,0,0,0,0,0,0,0,0,0,0,0,0,0,0,0,0,0,0,0,0,0,0,0,0,0,0,0,0,0,0,0,0],"sum_hessian":[6.9633115E3,1.206874E3,5.7564375E3,1.1681168E3,3.8757214E1,5.5323315E3,2.2410612E2,6.239141E2,5.442027E2,3.6376778E1,2.3804348E0,4.9646475E3,5.6768414E2,2.723107E2,3.5160342E2,4.442708E3,5.2193945E2,1.2160664E2,4.4607748E2,2.1702571E2,5.528499E1,1.8877095E2,1.6283247E2,3.9926462E3,4.500615E2,4.6999146E2,5.1948025E1,8.066137E1,4.0945282E1,4.1358572E2,3.2491783E1,2.8328432E1,1.8869728E2,4.921733E1,6.067656E0,1.3500592E2,5.3765038E1,7.27481E1,9.0084366E1,1.4618564E3,2.5307898E3,3.8261533E2,6.744617E1,4.534653E2,1.6526152E1,3.823295E1,1.3715076E1,1.1620446E0,7.949932E1,1.0043676E0,3.9940914E1,4.0634366E2,7.242052E0,2.4609789E1,7.8819942E0],"tree_param":{"num_deleted":"0","num_feature":"14","num_nodes":"55","size_leaf_vector":"1"}},{"base_weights":[-1.4168969E-1,-7.004527E-1,-4.2276584E-2,-7.519132E-1,8.6555785E-1,-1.0889417E-2,-3.0235538E-1,-5.2921593E-1,-9.747708E-1,-4.8691243E-1,2.978195E-1,-4.0405788E-2,9.600712E-1,-6.6527617E-1,2.2213697E-1,-9.863988E-1,4.0930605E-1,-3.8194533E-2,-1.7778182E-1,3.6888767E-2,-5.6454355E-1,2.9935214E-1,-4.8894215E-1,-5.83796E-1,-3.3282E-1,1.0220395E0,-2.902177E-1,-9.96192E-1,-5.387197E-1,2.7116543E-1,-1.6261595E-1,-6.1530158E-2,4.1353962E-1,-8.0388516E-1,6.565737E-2,-2.1618976E-1,5.005214E-2,-2.3331559E-1,-7.048089E-2,3.7759662E-1,-2.747908E-1,-3.015526E-1,-2.2679155E-1,-2.7195588E-1,3.9924988E-1,1.724039E-1,-3.8393248E-2,1.5779404E-1,-3.2134706E-1,-2.786458E-1,6.5546E-2,2.091546E-1,-2.9863653E-1],"categories":[],"categories_nodes":[],"categories_segments":[],"categories_sizes":[],"default_left":[0,0,0,0,0,0,0,0,0,0,0,0,0,0,0,0,0,0,0,0,0,0,0,0,0,0,0,0,0,0,0,0,0,0,0,0,0,0,0,0,0,0,0,0,0,0,0,0,0,0,0,0,0],"id":19,"left_children":[1,3,5,7,9,11,-1,13,15,17,-1,19,21,23,25,27,29,-1,-1,31,33,-1,35,37,-1,39,-1,41,43,-1,-1,45,47,49,51,-1,-1,-1,-1,-1,-1,-1,-1,-1,-1,-1,-1,-1,-1,-1,-1,-1,-1],"loss_changes":[3.5122363E2,7.7615265E1,1.6271565E2,4.5401062E1,5.789507E0,1.4910423E2,0E0,4.767917E1,7.826996E0,5.0828576E-2,0E0,2.0456343E2,8.888138E0,1.3606949E1,6.953222E1,1.4699402E0,2.6305811E0,0E0,0E0,1.6316466E2,9.793187E1,0E0,8.146385E-1,2.2477783E1,0E0,2.112735E1,0E0,2.0413208E-1,9.441001E0,0E0,0E0,1.4761313E2,1.5278773E2,6.0284454E1,1.2100736E2,0E0,0E0,0E0,0E0,0E0,0E0,0E0,0E0,0E0,0E0,0E0,0E0,0E0,0E0,0E0,0E0,0E0,0E0],"parents":[2147483647,0,0,1,1,2,2,3,3,4,4,5,5,7,7,8,8,9,9,11,11,12,12,13,13,14,14,15,15,16,16,19,19,20,20,22,22,23,23,25,25,27,27,28,28,31,31,32,32,33,33,34,34],"right_children":[2,4,6,8,10,12,-1,14,16,18,-1,20,22,24,26,28,30,-1,-1,32,34,-1,36,38,-1,40,-1,42,44,-1,-1,46,48,50,52,-1,-1,-1,-1,-1,-1,-1,-1,-1,-1,-1,-1,-1,-1,-1,-1,-1,-1],"split_conditions":[2.51E2,6.518333E2,3.0016E4,3.1E1,8.5306836E2,1.9325E3,-3.0235538E-1,1.2E1,1.0834546E3,3.1E1,2.978195E-1,1.9E2,1.2126E4,5.4255E4,8.8E1,1.72876E5,8.8E1,-3.8194533E-2,-1.7778182E-1,1.6567E4,6.907143E2,2.9935214E-1,1.7022297E3,1.025641E4,-3.3282E-1,3.0246E4,-2.902177E-1,2.36E2,2.27E2,2.7116543E-1,-1.6261595E-1,2.52E2,2.92E4,3E1,8.8E1,-2.1618976E-1,5.005214E-2,-2.3331559E-1,-7.048089E-2,3.7759662E-1,-2.747908E-1,-3.015526E-1,-2.2679155E-1,-2.7195588E-1,3.9924988E-1,1.724039E-1,-3.8393248E-2,1.5779404E-1,-3.2134706E-1,-2.786458E-1,6.5546E-2,2.091546E-1,-2.9863653E-1],"split_indices":[0,12,0,11,4,12,0,11,6,11,0,7,7,5,5,13,5,0,0,0,12,0,4,1,0,13,0,12,0,0,0,0,2,10,5,0,0,0,0,0,0,0,0,0,0,0,0,0,0,0,0,0,0],"split_type":[0,0,0,0,0,0,0,0,0,0,0,0,0,0,0,0,0,0,0,0,0,0,0,0,0,0,0,0,0,0,0,0,0,0,0,0,0,0,0,0,0,0,0,0,0,0,0,0,0,0,0,0,0],"sum_hessian":[6.322376E3,9.5403955E2,5.3683364E3,9.241897E2,2.9849838E1,5.2003057E3,1.680309E2,4.6394907E2,4.6024066E2,2.3224359E0,2.7527403E1,5.047815E3,1.5249086E2,3.9291232E2,7.103674E1,4.5669116E2,3.5494747E0,1.0283357E0,1.2941E0,4.3998926E3,6.4792224E2,1.4892055E2,3.5703216E0,3.3395798E2,5.8954327E1,4.255877E1,2.8477972E1,4.4571573E2,1.0975453E1,2.3682206E0,1.181254E0,3.489042E3,9.108506E2,4.6938187E2,1.7854036E2,2.565154E0,1.0051676E0,2.1385304E2,1.2010494E2,3.824045E1,4.318318E0,4.26579E2,1.9136698E1,9.601625E0,1.3738278E0,3.292207E2,3.1598213E3,8.473258E2,6.352478E1,4.1835074E2,5.1031105E1,1.1214178E2,6.639859E1],"tree_param":{"num_deleted":"0","num_feature":"14","num_nodes":"53","size_leaf_vector":"1"}},{"base_weights":[-1.1361365E-1,-5.9935763E-2,-9.8576075E-1,-2.4211193E-3,-7.4678344E-1,-3.001156E-1,3.4093422E-1,-1.16601646E-1,2.9579043E-1,-9.3033457E-1,-4.1667187E-1,2.6243833E-1,-1.6911949E-1,-8.8674027E-1,-8.238632E-3,1.7157708E0,2.1058865E-1,-1.0517114E0,-7.9496497E-1,-1.2417931E-1,-3.4301043E-1,5.5252504E-2,-9.5240504E-1,1.0480431E-1,-4.001566E-1,8.785557E-1,2.3283217E0,2.8798437E-1,-8.9235526E-1,-1.3012052E0,-3.0041867E-1,-2.8496778E-1,-2.7166072E-1,-4.122449E-1,4.7214392E-1,-2.0418091E-1,4.2613226E-1,5.0590046E-2,-2.9838726E-1,-3.5617922E-3,1.9394997E-1,-2.0030186E-1,1.6183044E-1,4.4630745E-1,-1.8542205E-1,3.686824E-1,8.649343E-1,2.7194776E-2,2.2927509E-1,-3.027689E-1,1.5414953E-1,-2.8697947E-1,-6.202191E-1,8.014548E-2,-2.8072852E-1,-3.1118792E-1,2.1244646E-3,2.5628188E-1,-2.8428483E-1],"categories":[],"categories_nodes":[],"categories_segments":[],"categories_sizes":[],"default_left":[0,0,0,0,0,0,0,0,0,0,0,0,0,0,0,0,0,0,0,0,0,0,0,0,0,0,0,0,0,0,0,0,0,0,0,0,0,0,0,0,0,0,0,0,0,0,0,0,0,0,0,0,0,0,0,0,0,0,0],"id":20,"left_children":[1,3,5,7,9,-1,11,13,15,17,19,-1,-1,21,23,25,27,29,31,33,-1,35,37,39,41,43,45,47,49,51,-1,-1,53,55,57,-1,-1,-1,-1,-1,-1,-1,-1,-1,-1,-1,-1,-1,-1,-1,-1,-1,-1,-1,-1,-1,-1,-1,-1],"loss_changes":[2.7575714E2,2.192876E2,6.967346E0,1.7447862E2,2.5601212E1,0E0,2.6517425E0,3.0922726E2,1.7128685E2,3.6796875E0,3.2820377E1,0E0,0E0,2.8324066E1,1.4400066E2,3.9068436E1,1.146084E2,4.771881E-1,1.0607903E1,1.9381588E1,0E0,3.1836992E1,2.03927E1,1.5945364E2,1.8325363E2,3.3264015E1,2.4324814E1,1.1764623E2,1.4994553E1,3.4243317E0,0E0,0E0,1.1705999E1,1.988681E1,2.0800539E1,0E0,0E0,0E0,0E0,0E0,0E0,0E0,0E0,0E0,0E0,0E0,0E0,0E0,0E0,0E0,0E0,0E0,0E0,0E0,0E0,0E0,0E0,0E0,0E0],"parents":[2147483647,0,0,1,1,2,2,3,3,4,4,6,6,7,7,8,8,9,9,10,10,13,13,14,14,15,15,16,16,17,17,18,18,19,19,21,21,22,22,23,23,24,24,25,25,26,26,27,27,28,28,29,29,32,32,33,33,34,34],"right_children":[2,4,6,8,10,-1,12,14,16,18,20,-1,-1,22,24,26,28,30,32,34,-1,36,38,40,42,44,46,48,50,52,-1,-1,54,56,58,-1,-1,-1,-1,-1,-1,-1,-1,-1,-1,-1,-1,-1,-1,-1,-1,-1,-1,-1,-1,-1,-1,-1,-1],"split_conditions":[2.3E1,3.332E4,1.3572285E3,2.4137099E2,2E4,-3.001156E-1,1.498E3,6E1,2.8735632E3,5.6E1,2.57E2,2.6243833E-1,-1.6911949E-1,2E0,2.52E2,1.106E3,2E0,3.2E1,2.1908903E0,2.56E2,-3.4301043E-1,5E1,1E0,2.27E2,1.11E2,3.89E2,5.3E1,3.2E1,3.0642856E2,2.4E1,-3.0041867E-1,-2.8496778E-1,1.73E2,1.024E3,5.4255E4,-2.0418091E-1,4.2613226E-1,5.0590046E-2,-2.9838726E-1,-3.5617922E-3,1.9394997E-1,-2.0030186E-1,1.6183044E-1,4.4630745E-1,-1.8542205E-1,3.686824E-1,8.649343E-1,2.7194776E-2,2.2927509E-1,-3.027689E-1,1.5414953E-1,-2.8697947E-1,-6.202191E-1,8.014548E-2,-2.8072852E-1,-3.1118792E-1,2.1244646E-3,2.5628188E-1,-2.8428483E-1],"split_indices":[8,5,12,1,1,0,7,9,1,13,2,0,0,0,2,2,10,9,4,2,0,13,3,2,13,5,5,9,6,9,0,0,3,0,5,0,0,0,0,0,0,0,0,0,0,0,0,0,0,0,0,0,0,0,0,0,0,0,0],"split_type":[0,0,0,0,0,0,0,0,0,0,0,0,0,0,0,0,0,0,0,0,0,0,0,0,0,0,0,0,0,0,0,0,0,0,0,0,0,0,0,0,0,0,0,0,0,0,0,0,0,0,0,0,0,0,0,0,0,0,0],"sum_hessian":[5.8906187E3,5.5500967E3,3.4052213E2,5.122183E3,4.279133E2,3.3705267E2,3.4694602E0,3.7044255E3,1.4177574E3,2.7383517E2,1.5407812E2,2.202653E0,1.2668072E0,4.560542E2,3.2483716E3,7.916974E1,1.3385878E3,1.4081055E2,1.3302463E2,1.1069476E2,4.3383358E1,2.9729452E1,4.2632474E2,2.5217441E3,7.2662726E2,3.4479076E1,4.4690662E1,1.2515061E3,8.708171E1,1.9459414E1,1.21351135E2,1.0200902E2,3.1015608E1,7.48471E1,3.5847664E1,1.964304E1,1.0086413E1,1.5364315E1,4.1096042E2,2.0756448E3,4.460994E2,5.6581915E2,1.6080809E2,2.450954E1,9.969537E0,1.6067112E1,2.862355E1,8.857121E2,3.6579395E2,8.066E1,6.4217052E0,1.4973398E1,4.486015E0,1.7453E1,1.3562609E1,2.9460121E1,4.538698E1,2.8559233E1,7.2884316E0],"tree_param":{"num_deleted":"0","num_feature":"14","num_nodes":"59","size_leaf_vector":"1"}},{"base_weights":[-9.475423E-2,-5.158213E-2,-9.8180455E-1,-6.490615E-3,-6.731047E-1,-2.9958084E-1,2.8353235E-1,3.830711E-2,-5.991543E-1,-2.9919568E-1,-4.517459E-1,2.2185197E-1,-1.5640268E-1,-2.6866643E-2,5.90654E-1,8.1393406E-2,-8.226877E-1,-3.0871183E-1,-3.531633E-1,4.2823598E-2,-6.566062E-1,6.4855736E-1,-2.8721341E-1,-2.9350355E-1,8.216449E-1,-8.600871E-1,2.4552302E0,4.8661772E-2,-6.545049E-1,-2.6917696E-4,2.0319118E-1,-2.4475463E-1,2.0008461E-1,2.1372108E-1,-1.2827739E-1,-2.9855546E-1,2.9875857E-1,-2.7227163E-1,1.259041E-1,1.0412706E0,1.1560533E-1,-7.36699E-2,1.3043737E-1,-3.1842148E-1,-1.20461084E-1],"categories":[],"categories_nodes":[],"categories_segments":[],"categories_sizes":[],"default_left":[0,0,0,0,0,0,0,0,0,0,0,0,0,0,0,0,0,0,0,0,0,0,0,0,0,0,0,0,0,0,0,0,0,0,0,0,0,0,0,0,0,0,0,0,0],"id":21,"left_children":[1,3,5,7,9,-1,11,13,15,-1,17,-1,-1,19,21,23,25,27,-1,29,31,33,-1,-1,35,37,39,41,43,-1,-1,-1,-1,-1,-1,-1,-1,-1,-1,-1,-1,-1,-1,-1,-1],"loss_changes":[2.09737E2,1.4642542E2,5.685959E0,1.2938725E2,2.4913315E1,0E0,1.8935957E0,1.631254E2,5.2165955E1,0E0,2.1619476E1,0E0,0E0,1.7793407E2,4.3489456E1,6.794422E1,3.3726776E1,2.2067648E1,0E0,1.0127342E2,8.568773E1,3.2020447E1,0E0,0E0,1.71123E1,1.5920883E1,5.3239117E0,1.0174942E1,8.909336E0,0E0,0E0,0E0,0E0,0E0,0E0,0E0,0E0,0E0,0E0,0E0,0E0,0E0,0E0,0E0,0E0],"parents":[2147483647,0,0,1,1,2,2,3,3,4,4,6,6,7,7,8,8,10,10,13,13,14,14,15,15,16,16,17,17,19,19,20,20,21,21,24,24,25,25,26,26,27,27,28,28],"right_children":[2,4,6,8,10,-1,12,14,16,-1,18,-1,-1,20,22,24,26,28,-1,30,32,34,-1,-1,36,38,40,42,44,-1,-1,-1,-1,-1,-1,-1,-1,-1,-1,-1,-1,-1,-1,-1,-1],"split_conditions":[2.3E1,3.332E4,1.3572285E3,8E0,6E0,-2.9958084E-1,1.498E3,9.012773E6,5.3E1,-2.9919568E-1,2.57E2,2.2185197E-1,-1.5640268E-1,1.964E3,3.0016E4,1.870638E6,1.9115957E3,5.1E1,-3.531633E-1,9.73E2,1.16E2,4.43E2,-2.8721341E-1,-2.9350355E-1,1.0227E4,4.664E3,1.6635464E7,3.8E1,5.4E1,-2.6917696E-4,2.0319118E-1,-2.4475463E-1,2.0008461E-1,2.1372108E-1,-1.2827739E-1,-2.9855546E-1,2.9875857E-1,-2.7227163E-1,1.259041E-1,1.0412706E0,1.1560533E-1,-7.36699E-2,1.3043737E-1,-3.1842148E-1,-1.20461084E-1],"split_indices":[8,5,12,10,8,0,7,3,5,0,2,0,0,13,0,3,4,3,0,13,9,5,0,0,0,9,3,13,13,0,0,0,0,0,0,0,0,0,0,0,0,0,0,0,0],"split_type":[0,0,0,0,0,0,0,0,0,0,0,0,0,0,0,0,0,0,0,0,0,0,0,0,0,0,0,0,0,0,0,0,0,0,0,0,0,0,0,0,0,0,0,0,0],"sum_hessian":[5.4770815E3,5.2238965E3,2.531851E2,4.8714805E3,3.5241592E2,2.5007597E2,3.1091323E0,4.530006E3,3.4147464E2,1.4156564E2,2.1085028E2,2.0365882E0,1.0725441E0,4.0527556E3,4.7725046E2,8.458658E1,2.5688806E2,1.7731587E2,3.3534397E1,3.6497834E3,4.0297195E2,4.6060287E2,1.6647564E1,3.465422E1,4.993236E1,2.5471945E2,2.1686103E0,8.762038E1,8.9695496E1,3.4154312E3,2.343524E2,3.6003787E2,4.2934086E1,4.3512558E2,2.547732E1,3.9567597E0,4.59756E1,2.4588681E2,8.832645E0,1.0007089E0,1.1679014E0,4.9934586E1,3.7685795E1,3.3160645E1,5.653485E1],"tree_param":{"num_deleted":"0","num_feature":"14","num_nodes":"45","size_leaf_vector":"1"}},{"base_weights":[-7.578399E-2,-4.1460034E-2,-9.7708017E-1,-2.000778E-2,-9.9207807E-1,-2.9898593E-1,2.3078632E-1,1.6226709E-2,-5.779638E-1,-3.036215E-1,-6.259824E-1,2.0824102E-1,-8.8218026E-2,3.129323E-1,-5.6950428E-2,-2.98132E-1,-3.5066205E-1,1.9224285E-1,-2.6961356E-1,4.252184E-1,-5.931173E-1,-3.2479185E-1,6.825374E-2,-2.2928567E-1,-3.390506E-1,1.9865246E-1,-3.1665646E-2,-2.8895035E-1,8.012949E-2,-2.3419322E-1,3.4880508E-2,2.717346E-1,-1.8464819E-2,-2.4945071E-2,-2.4436487E-1],"categories":[],"categories_nodes":[],"categories_segments":[],"categories_sizes":[],"default_left":[0,0,0,0,0,0,0,0,0,0,0,0,0,0,0,0,0,0,0,0,0,0,0,0,0,0,0,0,0,0,0,0,0,0,0],"id":22,"left_children":[1,3,5,7,9,-1,11,13,15,-1,17,-1,-1,19,21,-1,23,-1,-1,25,27,29,31,33,-1,-1,-1,-1,-1,-1,-1,-1,-1,-1,-1],"loss_changes":[1.5971599E2,1.0144878E2,4.7001495E0,9.8404686E1,1.7004395E-1,0E0,1.1348389E0,9.926545E1,2.7704948E1,0E0,3.4457574E0,0E0,0E0,9.227218E1,1.23014305E2,0E0,1.8044352E1,0E0,0E0,1.0135715E2,3.2137524E1,2.3502333E2,2.7185223E2,1.4356116E1,0E0,0E0,0E0,0E0,0E0,0E0,0E0,0E0,0E0,0E0,0E0],"parents":[2147483647,0,0,1,1,2,2,3,3,4,4,6,6,7,7,8,8,10,10,13,13,14,14,16,16,19,19,20,20,21,21,22,22,23,23],"right_children":[2,4,6,8,10,-1,12,14,16,-1,18,-1,-1,20,22,-1,24,-1,-1,26,28,30,32,34,-1,-1,-1,-1,-1,-1,-1,-1,-1,-1,-1],"split_conditions":[2.3E1,3.0016E4,1.3572285E3,3.332E4,1.353E3,-2.9898593E-1,1.25E2,4.8E1,6E0,-3.036215E-1,2.522E3,2.0824102E-1,-8.8218026E-2,4E0,4.53E2,-2.98132E-1,2.57E2,1.9224285E-1,-2.6961356E-1,3.0303031E4,2.27E2,7.6923076E3,1.093E3,8.2E1,-3.390506E-1,1.9865246E-1,-3.1665646E-2,-2.8895035E-1,8.012949E-2,-2.3419322E-1,3.4880508E-2,2.717346E-1,-1.8464819E-2,-2.4945071E-2,-2.4436487E-1],"split_indices":[8,0,12,5,5,0,3,3,8,0,5,0,0,11,3,0,2,0,0,1,2,1,3,3,0,0,0,0,0,0,0,0,0,0,0],"split_type":[0,0,0,0,0,0,0,0,0,0,0,0,0,0,0,0,0,0,0,0,0,0,0,0,0,0,0,0,0,0,0,0,0,0,0],"sum_hessian":[5.1630884E3,4.974684E3,1.884043E2,4.8658984E3,1.0878592E2,1.8557712E2,2.8271704E0,4.5700815E3,2.958169E2,1.0147933E2,7.3065886E0,1.330241E0,1.4969293E0,9.034909E2,3.6665903E3,1.0336195E2,1.9245493E2,1.0552896E0,6.251299E0,8.043403E2,9.915062E1,1.1674799E3,2.4991106E3,1.6764516E2,2.4809767E1,5.559121E2,2.4842818E2,6.924352E1,2.9907103E1,5.737342E2,5.9374567E2,3.3454556E2,2.164565E3,1.3506311E2,3.2582047E1],"tree_param":{"num_deleted":"0","num_feature":"14","num_nodes":"35","size_leaf_vector":"1"}},{"base_weights":[-5.8933027E-2,-3.1652827E-2,-9.7105813E-1,-1.2557728E-2,-3.128378E-1,-2.9828894E-1,2.1210651E-1,-3.2347776E-2,9.342509E-1,1.892528E-1,-7.612438E-2,3.0655816E-2,-4.8889074E-1,2.971301E-1,-3.7602827E-1,-1.2077885E-2,6.640873E-1,-9.995697E-1,-2.4422264E-1,-2.1410723E-1,1.027563E-1,1.3486781E-2,-1.852503E-1,-2.3499389E-1,2.283392E-1,-4.385432E-3,-3.0152974E-1,-1.6141945E-1,1.45665E-1],"categories":[],"categories_nodes":[],"categories_segments":[],"categories_sizes":[],"default_left":[0,0,0,0,0,0,0,0,0,0,0,0,0,0,0,0,0,0,0,0,0,0,0,0,0,0,0,0,0],"id":23,"left_children":[1,3,5,7,-1,-1,9,11,13,-1,-1,15,17,-1,19,21,23,25,27,-1,-1,-1,-1,-1,-1,-1,-1,-1,-1],"loss_changes":[1.2107303E2,9.1247894E1,4.095932E0,8.697244E1,0E0,0E0,8.5179293E-1,1.3077563E2,7.368309E0,0E0,0E0,1.0816629E2,6.864375E1,0E0,1.3683393E0,1.2931087E2,3.606875E1,9.5614624E-1,8.047702E1,0E0,0E0,0E0,0E0,0E0,0E0,0E0,0E0,0E0,0E0],"parents":[2147483647,0,0,1,1,2,2,3,3,6,6,7,7,8,8,11,11,12,12,14,14,15,15,16,16,17,17,18,18],"right_children":[2,4,6,8,-1,-1,10,12,14,-1,-1,16,18,-1,20,22,24,26,28,-1,-1,-1,-1,-1,-1,-1,-1,-1,-1],"split_conditions":[2.3E1,3.0016E4,1.3572285E3,1.9325E3,-3.128378E-1,-2.9828894E-1,1.25E2,4E0,1.2126E4,1.892528E-1,-7.612438E-2,1.6635464E7,2.27E2,2.971301E-1,2.2398655E3,5.416E3,6.4E1,1.06E2,6.907143E2,-2.1410723E-1,1.027563E-1,1.3486781E-2,-1.852503E-1,-2.3499389E-1,2.283392E-1,-4.385432E-3,-3.0152974E-1,-1.6141945E-1,1.45665E-1],"split_indices":[8,2,12,12,0,0,3,10,7,0,0,3,2,0,4,13,9,0,12,0,0,0,0,0,0,0,0,0,0],"split_type":[0,0,0,0,0,0,0,0,0,0,0,0,0,0,0,0,0,0,0,0,0,0,0,0,0,0,0,0,0],"sum_hessian":[4.865936E3,4.725635E3,1.4030145E2,4.63904E3,8.6594574E1,1.3775546E2,2.5459979E0,4.545007E3,9.4033195E1,1.1542925E0,1.3917053E0,3.9946697E3,5.5033734E2,9.040105E1,3.63215E0,3.743125E3,2.5154454E2,1.7726302E2,3.730743E2,2.4755805E0,1.1565696E0,3.421709E3,3.2141602E2,1.5361163E1,2.3618338E2,1.0099076E0,1.7625311E2,2.6616568E2,1.06908646E2],"tree_param":{"num_deleted":"0","num_feature":"14","num_nodes":"29","size_leaf_vector":"1"}},{"base_weights":[-4.6506394E-2,-2.5187124E-2,-9.635833E-1,-7.9572825E-3,-9.8011404E-1,-2.9743636E-1,1.9638553E-1,-2.8030988E-2,8.1749797E-1,-3.0134732E-1,-5.368602E-1,1.7271535E-1,-6.5566346E-2,1.6451815E-2,-5.6679E-1,1.065035E0,-3.8422874E-1,-6.09393E-2,-2.3596504E-1,3.2886762E-2,-3.083097E-1,-9.288811E-1,2.3231094E-1,6.1188376E-1,1.2900385E0,-1.6601363E-1,1.4466354E-1,-1.5045364E-1,1.9249074E-2,2.6309967E-1,-3.079487E-1,1.06745414E-1,-1.0727088E0,3.0559474E-1,-1.0320228E0,4.9719855E-1,3.5324064E-1],"categories":[],"categories_nodes":[],